svm_type c_svc
kernel_type rbf
gamma 2.0833333333333335E-4
nr_class 8
total_sv 64
rho 0.8181818181818182 0.2 0.0 0.4999999999994582 0.75 -0.25 -0.5 -0.7727272727272727 -0.8181818181818182 -0.6363636363636365 -0.2727272727272727 -0.8636363636363636 -0.9090909090909091 -0.2 0.37499999999932276 0.6875 -0.400000000000775 -0.6 0.4999999999994582 0.75 -0.25 -0.5 0.5 -0.6249999999995938 -0.7499999999997291 -0.8125 -0.875 -0.3333333333333333
label 3 7 5 6 1 8 2 4
probA 17.118752266492596 4.150620323859064 6.437751615473147 6.435371482939722 13.162889375244902 3.5317010328793397 5.38155391235516 14.539248090709911 18.093304925349926 11.195292241837583 5.104841254342772 26.11688461795564 27.58096224237886 4.191731367498274 5.521671738433294 11.421611443104617 4.4896944876173475 4.9474587220938115 6.435371482946951 13.162889375244967 3.594878721306405 4.074588128053812 6.824198591862707 8.290788213490028 9.887509174092322 18.09394885939091 15.118491549534419 3.727334404815363
probB 15.888838310069932 0.8078033483050205 1.179083440018327E-16 4.054539013696611 11.382111660220561 -0.892783839975712 -3.472495299288176 -12.776481254216929 -16.649134659779765 -8.247561642757516 -1.720082021724689 -24.643503264905103 -27.47549622248593 -0.9562719026334974 2.575004069401741 9.04488215595908 -2.3590530230512163 -3.9371041216219105 4.054539013704097 11.382111660220612 -0.41114499963348244 -2.238145568036487 4.111908805654116 -6.033839947629393 -8.788897298878524 -16.417047881971634 -15.515317288918954 -1.3862777334531913
nr_sv 4 22 5 4 8 16 3 2
SV
1.0 1.0 1.0 1.0 1.0 0.75 0.5 1:120.0 2:137.0 3:157.0 4:126.0 5:143.0 6:163.0 7:129.0 8:147.0 9:169.0 10:125.0 11:143.0 12:165.0 13:118.0 14:138.0 15:162.0 16:117.0 17:137.0 18:161.0 19:118.0 20:140.0 21:164.0 22:118.0 23:140.0 24:164.0 25:115.0 26:137.0 27:161.0 28:114.0 29:136.0 30:160.0 31:114.0 32:134.0 33:158.0 34:114.0 35:134.0 36:158.0 37:116.0 38:134.0 39:156.0 40:116.0 41:134.0 42:156.0 43:117.0 44:134.0 45:154.0 46:122.0 47:134.0 48:148.0 49:137.0 50:135.0 51:140.0 52:143.0 53:135.0 54:132.0 55:145.0 56:134.0 57:132.0 58:145.0 59:132.0 60:126.0 61:145.0 62:130.0 63:125.0 64:147.0 65:130.0 66:123.0 67:149.0 68:130.0 69:123.0 70:151.0 71:132.0 72:125.0 73:159.0 74:141.0 75:137.0 76:156.0 77:141.0 78:138.0 79:152.0 80:140.0 81:140.0 82:152.0 83:143.0 84:146.0 85:154.0 86:149.0 87:155.0 88:154.0 89:153.0 90:161.0 91:154.0 92:154.0 93:164.0 94:151.0 95:155.0 96:167.0 97:159.0 98:162.0 99:181.0 100:158.0 101:163.0 102:183.0 103:157.0 104:163.0 105:185.0 106:150.0 107:158.0 108:179.0 109:142.0 110:149.0 111:175.0 112:134.0 113:146.0 114:170.0 115:133.0 116:144.0 117:172.0 118:132.0 119:148.0 120:174.0 121:132.0 122:147.0 123:178.0 124:131.0 125:148.0 126:178.0 127:132.0 128:149.0 129:179.0 130:132.0 131:149.0 132:179.0 133:133.0 134:148.0 135:177.0 136:133.0 137:148.0 138:177.0 139:134.0 140:149.0 141:178.0 142:134.0 143:150.0 144:175.0 145:135.0 146:147.0 147:169.0 148:136.0 149:149.0 150:166.0 151:138.0 152:151.0 153:168.0 154:140.0 155:153.0 156:170.0 157:142.0 158:155.0 159:172.0 160:144.0 161:157.0 162:174.0 163:144.0 164:157.0 165:174.0 166:145.0 167:158.0 168:175.0 169:145.0 170:158.0 171:175.0 172:145.0 173:158.0 174:175.0 175:145.0 176:158.0 177:175.0 178:145.0 179:158.0 180:175.0 181:146.0 182:159.0 183:176.0 184:146.0 185:159.0 186:176.0 187:146.0 188:159.0 189:176.0 190:146.0 191:159.0 192:178.0 193:146.0 194:157.0 195:179.0 196:146.0 197:156.0 198:181.0 199:146.0 200:158.0 201:182.0 202:146.0 203:158.0 204:182.0 205:147.0 206:159.0 207:183.0 208:148.0 209:160.0 210:184.0 211:146.0 212:161.0 213:184.0 214:147.0 215:162.0 216:185.0 217:147.0 218:163.0 219:186.0 220:148.0 221:164.0 222:187.0 223:147.0 224:165.0 225:187.0 226:148.0 227:166.0 228:188.0 229:146.0 230:167.0 231:188.0 232:146.0 233:167.0 234:188.0 235:145.0 236:166.0 237:187.0 238:145.0 239:166.0 240:187.0 241:150.0 242:167.0 243:187.0 244:150.0 245:167.0 246:187.0 247:152.0 248:167.0 249:188.0 250:152.0 251:167.0 252:188.0 253:153.0 254:168.0 255:189.0 256:154.0 257:169.0 258:190.0 259:155.0 260:170.0 261:191.0 262:155.0 263:170.0 264:191.0 265:155.0 266:167.0 267:189.0 268:157.0 269:169.0 270:191.0 271:159.0 272:171.0 273:193.0 274:161.0 275:173.0 276:195.0 277:163.0 278:174.0 279:196.0 280:163.0 281:174.0 282:196.0 283:161.0 284:172.0 285:194.0 286:160.0 287:172.0 288:194.0 289:162.0 290:174.0 291:200.0 292:160.0 293:174.0 294:200.0 295:161.0 296:175.0 297:201.0 298:162.0 299:176.0 300:202.0 301:126.0 302:141.0 303:160.0 304:128.0 305:145.0 306:163.0 307:130.0 308:147.0 309:167.0 310:127.0 311:145.0 312:167.0 313:126.0 314:144.0 315:166.0 316:126.0 317:146.0 318:170.0 319:126.0 320:146.0 321:170.0 322:122.0 323:144.0 324:167.0 325:122.0 326:142.0 327:167.0 328:122.0 329:142.0 330:166.0 331:121.0 332:141.0 333:165.0 334:123.0 335:141.0 336:163.0 337:123.0 338:141.0 339:163.0 340:124.0 341:141.0 342:161.0 343:125.0 344:140.0 345:161.0 346:129.0 347:141.0 348:157.0 349:133.0 350:136.0 351:143.0 352:139.0 353:137.0 354:140.0 355:143.0 356:139.0 357:140.0 358:147.0 359:141.0 360:141.0 361:154.0 362:146.0 363:144.0 364:161.0 365:151.0 366:149.0 367:169.0 368:158.0 369:156.0 370:174.0 371:163.0 372:161.0 373:170.0 374:158.0 375:158.0 376:165.0 377:155.0 378:156.0 379:157.0 380:151.0 381:155.0 382:151.0 383:148.0 384:155.0 385:149.0 386:149.0 387:159.0 388:147.0 389:151.0 390:163.0 391:144.0 392:150.0 393:164.0 394:143.0 395:150.0 396:166.0 397:140.0 398:145.0 399:164.0 400:142.0 401:149.0 402:167.0 403:144.0 404:151.0 405:170.0 406:142.0 407:150.0 408:171.0 409:138.0 410:149.0 411:171.0 412:137.0 413:149.0 414:173.0 415:137.0 416:151.0 417:177.0 418:138.0 419:154.0 420:180.0 421:134.0 422:151.0 423:179.0 424:134.0 425:151.0 426:179.0 427:134.0 428:151.0 429:179.0 430:134.0 431:151.0 432:179.0 433:135.0 434:150.0 435:179.0 436:136.0 437:152.0 438:178.0 439:136.0 440:152.0 441:178.0 442:136.0 443:152.0 444:177.0 445:140.0 446:155.0 447:176.0 448:142.0 449:155.0 450:172.0 451:143.0 452:156.0 453:173.0 454:144.0 455:157.0 456:174.0 457:145.0 458:158.0 459:175.0 460:145.0 461:158.0 462:175.0 463:145.0 464:158.0 465:175.0 466:145.0 467:158.0 468:175.0 469:146.0 470:159.0 471:176.0 472:146.0 473:159.0 474:176.0 475:146.0 476:159.0 477:176.0 478:146.0 479:159.0 480:176.0 481:146.0 482:159.0 483:176.0 484:146.0 485:159.0 486:176.0 487:146.0 488:159.0 489:176.0 490:146.0 491:159.0 492:178.0 493:147.0 494:159.0 495:181.0 496:147.0 497:159.0 498:183.0 499:148.0 500:160.0 501:184.0 502:148.0 503:160.0 504:184.0 505:149.0 506:161.0 507:185.0 508:148.0 509:163.0 510:186.0 511:149.0 512:164.0 513:187.0 514:149.0 515:164.0 516:187.0 517:149.0 518:165.0 519:188.0 520:149.0 521:165.0 522:188.0 523:148.0 524:166.0 525:188.0 526:149.0 527:167.0 528:189.0 529:149.0 530:167.0 531:189.0 532:147.0 533:168.0 534:189.0 535:146.0 536:167.0 537:188.0 538:148.0 539:166.0 540:188.0 541:151.0 542:169.0 543:189.0 544:152.0 545:169.0 546:189.0 547:153.0 548:170.0 549:190.0 550:154.0 551:171.0 552:191.0 553:156.0 554:171.0 555:192.0 556:155.0 557:172.0 558:192.0 559:157.0 560:172.0 561:193.0 562:157.0 563:172.0 564:193.0 565:156.0 566:171.0 567:192.0 568:157.0 569:172.0 570:193.0 571:160.0 572:172.0 573:194.0 574:162.0 575:174.0 576:196.0 577:163.0 578:175.0 579:197.0 580:163.0 581:175.0 582:197.0 583:164.0 584:175.0 585:197.0 586:162.0 587:174.0 588:198.0 589:162.0 590:176.0 591:202.0 592:163.0 593:177.0 594:203.0 595:164.0 596:178.0 597:204.0 598:164.0 599:178.0 600:204.0 601:131.0 602:144.0 603:161.0 604:132.0 605:145.0 606:162.0 607:131.0 608:144.0 609:163.0 610:129.0 611:144.0 612:163.0 613:130.0 614:147.0 615:167.0 616:132.0 617:150.0 618:172.0 619:130.0 620:148.0 621:170.0 622:124.0 623:145.0 624:166.0 625:131.0 626:149.0 627:173.0 628:131.0 629:149.0 630:171.0 631:130.0 632:148.0 633:170.0 634:131.0 635:148.0 636:168.0 637:132.0 638:147.0 639:166.0 640:132.0 641:148.0 642:164.0 643:135.0 644:148.0 645:165.0 646:135.0 647:148.0 648:164.0 649:135.0 650:147.0 651:163.0 652:135.0 653:147.0 654:161.0 655:138.0 656:148.0 657:160.0 658:141.0 659:149.0 660:160.0 661:146.0 662:153.0 663:163.0 664:154.0 665:158.0 666:167.0 667:163.0 668:166.0 669:175.0 670:170.0 671:170.0 672:180.0 673:167.0 674:167.0 675:177.0 676:160.0 677:162.0 678:174.0 679:150.0 680:156.0 681:170.0 682:143.0 683:152.0 684:169.0 685:139.0 686:150.0 687:168.0 688:136.0 689:151.0 690:172.0 691:135.0 692:151.0 693:174.0 694:136.0 695:151.0 696:172.0 697:142.0 698:151.0 699:168.0 700:143.0 701:150.0 702:166.0 703:143.0 704:150.0 705:168.0 706:143.0 707:152.0 708:169.0 709:141.0 710:152.0 711:170.0 712:141.0 713:154.0 714:173.0 715:139.0 716:154.0 717:175.0 718:138.0 719:154.0 720:177.0 721:137.0 722:155.0 723:179.0 724:137.0 725:154.0 726:180.0 727:137.0 728:154.0 729:180.0 730:137.0 731:155.0 732:179.0 733:138.0 734:156.0 735:180.0 736:138.0 737:156.0 738:180.0 739:139.0 740:155.0 741:180.0 742:139.0 743:155.0 744:178.0 745:144.0 746:159.0 747:180.0 748:144.0 749:159.0 750:178.0 751:145.0 752:160.0 753:179.0 754:146.0 755:161.0 756:180.0 757:146.0 758:161.0 759:180.0 760:146.0 761:161.0 762:180.0 763:146.0 764:161.0 765:180.0 766:146.0 767:161.0 768:180.0 769:144.0 770:159.0 771:178.0 772:145.0 773:160.0 774:179.0 775:145.0 776:160.0 777:179.0 778:145.0 779:160.0 780:179.0 781:145.0 782:160.0 783:179.0 784:146.0 785:161.0 786:180.0 787:146.0 788:161.0 789:180.0 790:146.0 791:161.0 792:180.0 793:148.0 794:163.0 795:184.0 796:148.0 797:163.0 798:186.0 799:148.0 800:163.0 801:186.0 802:149.0 803:164.0 804:187.0 805:150.0 806:165.0 807:188.0 808:151.0 809:166.0 810:189.0 811:151.0 812:166.0 813:189.0 814:151.0 815:167.0 816:190.0 817:151.0 818:167.0 819:190.0 820:151.0 821:167.0 822:190.0 823:151.0 824:167.0 825:190.0 826:151.0 827:169.0 828:191.0 829:151.0 830:169.0 831:191.0 832:151.0 833:169.0 834:191.0 835:151.0 836:169.0 837:191.0 838:151.0 839:169.0 840:191.0 841:154.0 842:172.0 843:194.0 844:154.0 845:172.0 846:194.0 847:155.0 848:173.0 849:195.0 850:156.0 851:174.0 852:196.0 853:158.0 854:174.0 855:197.0 856:157.0 857:175.0 858:197.0 859:159.0 860:175.0 861:198.0 862:159.0 863:175.0 864:198.0 865:159.0 866:175.0 867:198.0 868:159.0 869:175.0 870:198.0 871:160.0 872:175.0 873:198.0 874:161.0 875:176.0 876:199.0 877:161.0 878:176.0 879:199.0 880:162.0 881:177.0 882:200.0 883:165.0 884:177.0 885:201.0 886:164.0 887:179.0 888:202.0 889:165.0 890:179.0 891:205.0 892:166.0 893:180.0 894:206.0 895:167.0 896:181.0 897:207.0 898:168.0 899:182.0 900:208.0 901:138.0 902:150.0 903:166.0 904:140.0 905:152.0 906:168.0 907:139.0 908:151.0 909:167.0 910:136.0 911:149.0 912:166.0 913:134.0 914:149.0 915:168.0 916:135.0 917:152.0 918:172.0 919:133.0 920:150.0 921:170.0 922:129.0 923:147.0 924:167.0 925:135.0 926:151.0 927:174.0 928:135.0 929:152.0 930:172.0 931:134.0 932:151.0 933:171.0 934:135.0 935:150.0 936:169.0 937:137.0 938:150.0 939:167.0 940:138.0 941:151.0 942:167.0 943:139.0 944:151.0 945:167.0 946:139.0 947:152.0 948:169.0 949:138.0 950:156.0 951:176.0 952:136.0 953:157.0 954:176.0 955:137.0 956:155.0 957:175.0 958:137.0 959:154.0 960:170.0 961:137.0 962:153.0 963:169.0 964:141.0 965:154.0 966:170.0 967:145.0 968:157.0 969:171.0 970:150.0 971:159.0 972:174.0 973:150.0 974:159.0 975:174.0 976:146.0 977:158.0 978:174.0 979:142.0 980:155.0 981:174.0 982:138.0 983:153.0 984:174.0 985:136.0 986:154.0 987:178.0 988:136.0 989:156.0 990:181.0 991:136.0 992:157.0 993:184.0 994:138.0 995:158.0 996:182.0 997:149.0 998:161.0 999:177.0 1000:149.0 1001:159.0 1002:171.0 1003:147.0 1004:157.0 1005:169.0 1006:145.0 1007:157.0 1008:171.0 1009:144.0 1010:157.0 1011:173.0 1012:142.0 1013:158.0 1014:174.0 1015:139.0 1016:156.0 1017:174.0 1018:136.0 1019:154.0 1020:174.0 1021:140.0 1022:158.0 1023:180.0 1024:140.0 1025:158.0 1026:180.0 1027:140.0 1028:158.0 1029:180.0 1030:140.0 1031:158.0 1032:180.0 1033:141.0 1034:159.0 1035:181.0 1036:141.0 1037:159.0 1038:179.0 1039:142.0 1040:159.0 1041:179.0 1042:142.0 1043:159.0 1044:179.0 1045:143.0 1046:158.0 1047:177.0 1048:143.0 1049:158.0 1050:177.0 1051:145.0 1052:160.0 1053:179.0 1054:147.0 1055:162.0 1056:181.0 1057:148.0 1058:163.0 1059:182.0 1060:150.0 1061:165.0 1062:184.0 1063:150.0 1064:165.0 1065:184.0 1066:150.0 1067:165.0 1068:184.0 1069:146.0 1070:161.0 1071:180.0 1072:146.0 1073:161.0 1074:180.0 1075:147.0 1076:162.0 1077:181.0 1078:147.0 1079:162.0 1080:181.0 1081:147.0 1082:162.0 1083:181.0 1084:148.0 1085:163.0 1086:182.0 1087:148.0 1088:163.0 1089:182.0 1090:148.0 1091:163.0 1092:182.0 1093:150.0 1094:165.0 1095:186.0 1096:150.0 1097:165.0 1098:186.0 1099:151.0 1100:166.0 1101:189.0 1102:151.0 1103:166.0 1104:187.0 1105:152.0 1106:167.0 1107:190.0 1108:153.0 1109:168.0 1110:189.0 1111:152.0 1112:168.0 1113:191.0 1114:153.0 1115:170.0 1116:190.0 1117:154.0 1118:170.0 1119:193.0 1120:154.0 1121:171.0 1122:191.0 1123:154.0 1124:170.0 1125:193.0 1126:154.0 1127:171.0 1128:191.0 1129:154.0 1130:170.0 1131:193.0 1132:155.0 1133:172.0 1134:192.0 1135:156.0 1136:172.0 1137:195.0 1138:155.0 1139:173.0 1140:195.0 1141:154.0 1142:175.0 1143:196.0 1144:155.0 1145:176.0 1146:197.0 1147:157.0 1148:175.0 1149:197.0 1150:158.0 1151:176.0 1152:198.0 1153:159.0 1154:177.0 1155:199.0 1156:160.0 1157:178.0 1158:200.0 1159:160.0 1160:178.0 1161:200.0 1162:161.0 1163:179.0 1164:201.0 1165:162.0 1166:178.0 1167:201.0 1168:161.0 1169:177.0 1170:200.0 1171:160.0 1172:176.0 1173:199.0 1174:160.0 1175:176.0 1176:199.0 1177:162.0 1178:177.0 1179:200.0 1180:164.0 1181:179.0 1182:202.0 1183:166.0 1184:181.0 1185:204.0 1186:167.0 1187:182.0 1188:205.0 1189:167.0 1190:182.0 1191:205.0 1192:168.0 1193:183.0 1194:206.0 1195:169.0 1196:183.0 1197:209.0 1198:170.0 1199:185.0 1200:208.0 1201:150.0 1202:159.0 1203:174.0 1204:152.0 1205:164.0 1206:178.0 1207:153.0 1208:165.0 1209:179.0 1210:146.0 1211:159.0 1212:175.0 1213:141.0 1214:154.0 1215:171.0 1216:138.0 1217:153.0 1218:172.0 1219:139.0 1220:154.0 1221:173.0 1222:138.0 1223:155.0 1224:173.0 1225:138.0 1226:153.0 1227:174.0 1228:138.0 1229:153.0 1230:172.0 1231:138.0 1232:153.0 1233:172.0 1234:140.0 1235:153.0 1236:170.0 1237:140.0 1238:153.0 1239:169.0 1240:142.0 1241:154.0 1242:168.0 1243:145.0 1244:154.0 1245:169.0 1246:142.0 1247:155.0 1248:171.0 1249:136.0 1250:158.0 1251:179.0 1252:135.0 1253:160.0 1254:182.0 1255:139.0 1256:161.0 1257:184.0 1258:140.0 1259:161.0 1260:180.0 1261:141.0 1262:159.0 1263:179.0 1264:142.0 1265:159.0 1266:177.0 1267:144.0 1268:160.0 1269:176.0 1270:148.0 1271:161.0 1272:177.0 1273:141.0 1274:154.0 1275:170.0 1276:142.0 1277:155.0 1278:172.0 1279:141.0 1280:156.0 1281:175.0 1282:141.0 1283:158.0 1284:178.0 1285:141.0 1286:159.0 1287:183.0 1288:139.0 1289:159.0 1290:184.0 1291:139.0 1292:160.0 1293:187.0 1294:141.0 1295:161.0 1296:185.0 1297:144.0 1298:158.0 1299:171.0 1300:146.0 1301:156.0 1302:166.0 1303:146.0 1304:156.0 1305:166.0 1306:144.0 1307:156.0 1308:168.0 1309:145.0 1310:159.0 1311:172.0 1312:144.0 1313:160.0 1314:175.0 1315:142.0 1316:159.0 1317:175.0 1318:140.0 1319:159.0 1320:176.0 1321:142.0 1322:161.0 1323:178.0 1324:140.0 1325:161.0 1326:180.0 1327:140.0 1328:161.0 1329:180.0 1330:140.0 1331:161.0 1332:178.0 1333:143.0 1334:162.0 1335:179.0 1336:143.0 1337:162.0 1338:179.0 1339:143.0 1340:162.0 1341:177.0 1342:143.0 1343:162.0 1344:177.0 1345:142.0 1346:159.0 1347:177.0 1348:143.0 1349:160.0 1350:178.0 1351:145.0 1352:162.0 1353:180.0 1354:146.0 1355:163.0 1356:181.0 1357:148.0 1358:165.0 1359:183.0 1360:149.0 1361:166.0 1362:184.0 1363:149.0 1364:166.0 1365:184.0 1366:149.0 1367:166.0 1368:184.0 1369:147.0 1370:164.0 1371:182.0 1372:148.0 1373:165.0 1374:183.0 1375:148.0 1376:165.0 1377:183.0 1378:149.0 1379:166.0 1380:184.0 1381:149.0 1382:166.0 1383:184.0 1384:150.0 1385:167.0 1386:185.0 1387:150.0 1388:167.0 1389:185.0 1390:151.0 1391:168.0 1392:186.0 1393:150.0 1394:167.0 1395:185.0 1396:151.0 1397:168.0 1398:186.0 1399:151.0 1400:168.0 1401:188.0 1402:152.0 1403:169.0 1404:187.0 1405:153.0 1406:170.0 1407:190.0 1408:153.0 1409:170.0 1410:188.0 1411:154.0 1412:171.0 1413:191.0 1414:154.0 1415:171.0 1416:189.0 1417:158.0 1418:173.0 1419:194.0 1420:158.0 1421:173.0 1422:192.0 1423:157.0 1424:172.0 1425:193.0 1426:157.0 1427:172.0 1428:191.0 1429:158.0 1430:173.0 1431:194.0 1432:159.0 1433:174.0 1434:193.0 1435:160.0 1436:175.0 1437:196.0 1438:160.0 1439:177.0 1440:197.0 1441:158.0 1442:176.0 1443:198.0 1444:157.0 1445:178.0 1446:199.0 1447:157.0 1448:178.0 1449:199.0 1450:158.0 1451:179.0 1452:200.0 1453:161.0 1454:179.0 1455:201.0 1456:162.0 1457:180.0 1458:202.0 1459:162.0 1460:180.0 1461:202.0 1462:163.0 1463:181.0 1464:203.0 1465:164.0 1466:180.0 1467:203.0 1468:163.0 1469:179.0 1470:202.0 1471:162.0 1472:178.0 1473:201.0 1474:162.0 1475:178.0 1476:201.0 1477:162.0 1478:178.0 1479:201.0 1480:164.0 1481:180.0 1482:203.0 1483:167.0 1484:183.0 1485:206.0 1486:170.0 1487:185.0 1488:208.0 1489:169.0 1490:184.0 1491:207.0 1492:172.0 1493:184.0 1494:206.0 1495:173.0 1496:185.0 1497:209.0 1498:174.0 1499:186.0 1500:208.0 1501:152.0 1502:162.0 1503:174.0 1504:155.0 1505:167.0 1506:179.0 1507:156.0 1508:168.0 1509:182.0 1510:148.0 1511:161.0 1512:177.0 1513:141.0 1514:154.0 1515:171.0 1516:139.0 1517:155.0 1518:171.0 1519:141.0 1520:156.0 1521:175.0 1522:141.0 1523:158.0 1524:176.0 1525:142.0 1526:157.0 1527:176.0 1528:142.0 1529:157.0 1530:176.0 1531:142.0 1532:158.0 1533:174.0 1534:144.0 1535:157.0 1536:174.0 1537:145.0 1538:158.0 1539:174.0 1540:146.0 1541:158.0 1542:172.0 1543:147.0 1544:159.0 1545:173.0 1546:147.0 1547:160.0 1548:176.0 1549:138.0 1550:159.0 1551:178.0 1552:139.0 1553:161.0 1554:182.0 1555:143.0 1556:164.0 1557:183.0 1558:146.0 1559:165.0 1560:182.0 1561:146.0 1562:163.0 1563:179.0 1564:147.0 1565:163.0 1566:178.0 1567:150.0 1568:162.0 1569:176.0 1570:152.0 1571:162.0 1572:174.0 1573:151.0 1574:161.0 1575:173.0 1576:152.0 1577:161.0 1578:176.0 1579:152.0 1580:164.0 1581:178.0 1582:152.0 1583:164.0 1584:180.0 1585:149.0 1586:162.0 1587:181.0 1588:145.0 1589:160.0 1590:179.0 1591:143.0 1592:160.0 1593:180.0 1594:144.0 1595:160.0 1596:176.0 1597:150.0 1598:162.0 1599:174.0 1600:152.0 1601:162.0 1602:171.0 1603:150.0 1604:163.0 1605:172.0 1606:148.0 1607:162.0 1608:171.0 1609:148.0 1610:162.0 1611:175.0 1612:146.0 1613:162.0 1614:175.0 1615:145.0 1616:162.0 1617:178.0 1618:143.0 1619:162.0 1620:177.0 1621:145.0 1622:164.0 1623:181.0 1624:143.0 1625:164.0 1626:181.0 1627:143.0 1628:164.0 1629:181.0 1630:143.0 1631:165.0 1632:179.0 1633:146.0 1634:165.0 1635:180.0 1636:146.0 1637:165.0 1638:179.0 1639:146.0 1640:165.0 1641:179.0 1642:147.0 1643:165.0 1644:179.0 1645:148.0 1646:165.0 1647:181.0 1648:148.0 1649:165.0 1650:183.0 1651:148.0 1652:165.0 1653:183.0 1654:149.0 1655:166.0 1656:184.0 1657:149.0 1658:166.0 1659:184.0 1660:148.0 1661:165.0 1662:183.0 1663:148.0 1664:165.0 1665:183.0 1666:147.0 1667:164.0 1668:182.0 1669:150.0 1670:167.0 1671:185.0 1672:150.0 1673:167.0 1674:185.0 1675:151.0 1676:168.0 1677:186.0 1678:152.0 1679:169.0 1680:187.0 1681:152.0 1682:169.0 1683:187.0 1684:153.0 1685:170.0 1686:188.0 1687:154.0 1688:171.0 1689:189.0 1690:154.0 1691:171.0 1692:189.0 1693:152.0 1694:169.0 1695:187.0 1696:153.0 1697:170.0 1698:186.0 1699:153.0 1700:170.0 1701:188.0 1702:154.0 1703:171.0 1704:187.0 1705:155.0 1706:172.0 1707:190.0 1708:156.0 1709:173.0 1710:189.0 1711:156.0 1712:173.0 1713:191.0 1714:156.0 1715:173.0 1716:189.0 1717:161.0 1718:176.0 1719:195.0 1720:160.0 1721:176.0 1722:192.0 1723:160.0 1724:175.0 1725:194.0 1726:162.0 1727:175.0 1728:192.0 1729:162.0 1730:175.0 1731:194.0 1732:164.0 1733:177.0 1734:194.0 1735:166.0 1736:179.0 1737:198.0 1738:167.0 1739:180.0 1740:199.0 1741:162.0 1742:179.0 1743:197.0 1744:161.0 1745:180.0 1746:197.0 1747:162.0 1748:180.0 1749:200.0 1750:162.0 1751:181.0 1752:198.0 1753:164.0 1754:181.0 1755:201.0 1756:165.0 1757:182.0 1758:200.0 1759:166.0 1760:183.0 1761:203.0 1762:166.0 1763:183.0 1764:201.0 1765:168.0 1766:183.0 1767:204.0 1768:167.0 1769:182.0 1770:201.0 1771:166.0 1772:181.0 1773:202.0 1774:166.0 1775:181.0 1776:200.0 1777:167.0 1778:182.0 1779:203.0 1780:169.0 1781:184.0 1782:203.0 1783:171.0 1784:186.0 1785:207.0 1786:174.0 1787:187.0 1788:206.0 1789:174.0 1790:187.0 1791:206.0 1792:174.0 1793:187.0 1794:206.0 1795:176.0 1796:187.0 1797:207.0 1798:176.0 1799:189.0 1800:208.0 1801:146.0 1802:158.0 1803:172.0 1804:148.0 1805:162.0 1806:175.0 1807:148.0 1808:161.0 1809:177.0 1810:142.0 1811:158.0 1812:173.0 1813:140.0 1814:156.0 1815:172.0 1816:141.0 1817:158.0 1818:174.0 1819:143.0 1820:160.0 1821:178.0 1822:141.0 1823:160.0 1824:177.0 1825:145.0 1826:162.0 1827:180.0 1828:144.0 1829:161.0 1830:179.0 1831:144.0 1832:161.0 1833:177.0 1834:146.0 1835:162.0 1836:178.0 1837:146.0 1838:162.0 1839:177.0 1840:149.0 1841:163.0 1842:176.0 1843:150.0 1844:164.0 1845:177.0 1846:151.0 1847:165.0 1848:178.0 1849:150.0 1850:164.0 1851:177.0 1852:151.0 1853:165.0 1854:176.0 1855:152.0 1856:164.0 1857:176.0 1858:153.0 1859:163.0 1860:173.0 1861:152.0 1862:161.0 1863:168.0 1864:152.0 1865:159.0 1866:165.0 1867:155.0 1868:158.0 1869:163.0 1870:157.0 1871:158.0 1872:163.0 1873:163.0 1874:164.0 1875:169.0 1876:165.0 1877:166.0 1878:171.0 1879:165.0 1880:166.0 1881:171.0 1882:164.0 1883:164.0 1884:172.0 1885:158.0 1886:161.0 1887:168.0 1888:155.0 1889:159.0 1890:168.0 1891:155.0 1892:159.0 1893:170.0 1894:154.0 1895:161.0 1896:171.0 1897:164.0 1898:173.0 1899:182.0 1900:164.0 1901:174.0 1902:183.0 1903:162.0 1904:175.0 1905:184.0 1906:157.0 1907:171.0 1908:180.0 1909:153.0 1910:167.0 1911:180.0 1912:147.0 1913:163.0 1914:176.0 1915:146.0 1916:163.0 1917:179.0 1918:146.0 1919:165.0 1920:180.0 1921:148.0 1922:167.0 1923:182.0 1924:148.0 1925:167.0 1926:182.0 1927:148.0 1928:167.0 1929:182.0 1930:149.0 1931:168.0 1932:183.0 1933:150.0 1934:167.0 1935:183.0 1936:150.0 1937:168.0 1938:182.0 1939:150.0 1940:168.0 1941:182.0 1942:150.0 1943:168.0 1944:182.0 1945:152.0 1946:169.0 1947:185.0 1948:152.0 1949:169.0 1950:185.0 1951:152.0 1952:169.0 1953:185.0 1954:152.0 1955:169.0 1956:185.0 1957:152.0 1958:169.0 1959:185.0 1960:152.0 1961:169.0 1962:185.0 1963:151.0 1964:168.0 1965:184.0 1966:151.0 1967:168.0 1968:184.0 1969:152.0 1970:169.0 1971:185.0 1972:153.0 1973:170.0 1974:186.0 1975:153.0 1976:170.0 1977:186.0 1978:154.0 1979:171.0 1980:187.0 1981:155.0 1982:172.0 1983:188.0 1984:156.0 1985:173.0 1986:189.0 1987:157.0 1988:174.0 1989:190.0 1990:157.0 1991:174.0 1992:190.0 1993:155.0 1994:172.0 1995:188.0 1996:155.0 1997:173.0 1998:187.0 1999:156.0 2000:173.0 2001:189.0 2002:157.0 2003:175.0 2004:189.0 2005:159.0 2006:175.0 2007:191.0 2008:159.0 2009:175.0 2010:190.0 2011:160.0 2012:176.0 2013:192.0 2014:160.0 2015:176.0 2016:191.0 2017:165.0 2018:178.0 2019:195.0 2020:164.0 2021:177.0 2022:193.0 2023:164.0 2024:177.0 2025:194.0 2026:164.0 2027:176.0 2028:192.0 2029:165.0 2030:176.0 2031:194.0 2032:167.0 2033:179.0 2034:195.0 2035:169.0 2036:180.0 2037:198.0 2038:171.0 2039:183.0 2040:199.0 2041:168.0 2042:181.0 2043:197.0 2044:168.0 2045:182.0 2046:195.0 2047:169.0 2048:182.0 2049:198.0 2050:169.0 2051:183.0 2052:196.0 2053:170.0 2054:183.0 2055:199.0 2056:171.0 2057:185.0 2058:198.0 2059:173.0 2060:185.0 2061:201.0 2062:173.0 2063:185.0 2064:199.0 2065:174.0 2066:186.0 2067:202.0 2068:174.0 2069:186.0 2070:200.0 2071:175.0 2072:184.0 2073:201.0 2074:175.0 2075:184.0 2076:199.0 2077:176.0 2078:185.0 2079:202.0 2080:178.0 2081:187.0 2082:202.0 2083:179.0 2084:188.0 2085:205.0 2086:180.0 2087:189.0 2088:206.0 2089:180.0 2090:189.0 2091:206.0 2092:178.0 2093:189.0 2094:207.0 2095:181.0 2096:189.0 2097:208.0 2098:180.0 2099:191.0 2100:209.0 2101:145.0 2102:159.0 2103:172.0 2104:144.0 2105:160.0 2106:173.0 2107:142.0 2108:158.0 2109:173.0 2110:140.0 2111:158.0 2112:172.0 2113:143.0 2114:160.0 2115:176.0 2116:147.0 2117:166.0 2118:181.0 2119:149.0 2120:168.0 2121:185.0 2122:144.0 2123:165.0 2124:182.0 2125:145.0 2126:164.0 2127:181.0 2128:145.0 2129:164.0 2130:181.0 2131:145.0 2132:164.0 2133:181.0 2134:146.0 2135:163.0 2136:179.0 2137:147.0 2138:164.0 2139:180.0 2140:149.0 2141:165.0 2142:180.0 2143:150.0 2144:166.0 2145:181.0 2146:152.0 2147:166.0 2148:177.0 2149:156.0 2150:166.0 2151:175.0 2152:158.0 2153:165.0 2154:171.0 2155:159.0 2156:164.0 2157:170.0 2158:157.0 2159:162.0 2160:166.0 2161:159.0 2162:160.0 2163:162.0 2164:160.0 2165:160.0 2166:160.0 2167:163.0 2168:162.0 2169:160.0 2170:167.0 2171:163.0 2172:162.0 2173:168.0 2174:162.0 2175:162.0 2176:169.0 2177:163.0 2178:163.0 2179:169.0 2180:163.0 2181:163.0 2182:167.0 2183:161.0 2184:161.0 2185:165.0 2186:159.0 2187:159.0 2188:164.0 2189:160.0 2190:161.0 2191:167.0 2192:163.0 2193:164.0 2194:167.0 2195:166.0 2196:171.0 2197:163.0 2198:170.0 2199:178.0 2200:164.0 2201:174.0 2202:183.0 2203:166.0 2204:176.0 2205:186.0 2206:161.0 2207:173.0 2208:185.0 2209:154.0 2210:168.0 2211:181.0 2212:149.0 2213:165.0 2214:180.0 2215:151.0 2216:167.0 2217:183.0 2218:152.0 2219:169.0 2220:185.0 2221:151.0 2222:168.0 2223:184.0 2224:151.0 2225:168.0 2226:184.0 2227:152.0 2228:169.0 2229:185.0 2230:152.0 2231:170.0 2232:184.0 2233:153.0 2234:169.0 2235:184.0 2236:153.0 2237:169.0 2238:184.0 2239:156.0 2240:170.0 2241:183.0 2242:156.0 2243:170.0 2244:183.0 2245:153.0 2246:169.0 2247:184.0 2248:154.0 2249:170.0 2250:185.0 2251:155.0 2252:171.0 2253:186.0 2254:156.0 2255:172.0 2256:187.0 2257:157.0 2258:173.0 2259:188.0 2260:158.0 2261:174.0 2262:189.0 2263:158.0 2264:174.0 2265:189.0 2266:158.0 2267:174.0 2268:189.0 2269:155.0 2270:171.0 2271:186.0 2272:155.0 2273:171.0 2274:186.0 2275:156.0 2276:172.0 2277:187.0 2278:157.0 2279:173.0 2280:188.0 2281:158.0 2282:174.0 2283:189.0 2284:159.0 2285:175.0 2286:190.0 2287:160.0 2288:176.0 2289:191.0 2290:160.0 2291:176.0 2292:191.0 2293:158.0 2294:174.0 2295:187.0 2296:158.0 2297:176.0 2298:188.0 2299:159.0 2300:175.0 2301:188.0 2302:160.0 2303:176.0 2304:189.0 2305:161.0 2306:177.0 2307:190.0 2308:163.0 2309:177.0 2310:190.0 2311:164.0 2312:178.0 2313:191.0 2314:164.0 2315:178.0 2316:191.0 2317:167.0 2318:179.0 2319:193.0 2320:166.0 2321:178.0 2322:192.0 2323:168.0 2324:177.0 2325:192.0 2326:167.0 2327:176.0 2328:191.0 2329:168.0 2330:177.0 2331:192.0 2332:171.0 2333:178.0 2334:194.0 2335:174.0 2336:181.0 2337:197.0 2338:175.0 2339:183.0 2340:196.0 2341:174.0 2342:182.0 2343:193.0 2344:174.0 2345:183.0 2346:192.0 2347:175.0 2348:184.0 2349:193.0 2350:176.0 2351:185.0 2352:194.0 2353:177.0 2354:186.0 2355:195.0 2356:177.0 2357:186.0 2358:195.0 2359:179.0 2360:186.0 2361:196.0 2362:179.0 2363:186.0 2364:196.0 2365:181.0 2366:188.0 2367:198.0 2368:180.0 2369:187.0 2370:197.0 2371:182.0 2372:186.0 2373:197.0 2374:183.0 2375:187.0 2376:198.0 2377:184.0 2378:188.0 2379:199.0 2380:185.0 2381:189.0 2382:200.0 2383:186.0 2384:190.0 2385:201.0 2386:185.0 2387:191.0 2388:203.0 2389:183.0 2390:191.0 2391:204.0 2392:184.0 2393:191.0 2394:207.0 2395:185.0 2396:192.0 2397:208.0 2398:186.0 2399:193.0 2400:209.0 2401:150.0 2402:166.0 2403:181.0 2404:149.0 2405:167.0 2406:181.0 2407:149.0 2408:166.0 2409:182.0 2410:148.0 2411:165.0 2412:181.0 2413:147.0 2414:166.0 2415:183.0 2416:146.0 2417:167.0 2418:184.0 2419:148.0 2420:169.0 2421:188.0 2422:149.0 2423:172.0 2424:190.0 2425:150.0 2426:171.0 2427:190.0 2428:147.0 2429:168.0 2430:185.0 2431:145.0 2432:166.0 2433:183.0 2434:149.0 2435:168.0 2436:183.0 2437:152.0 2438:169.0 2439:185.0 2440:150.0 2441:168.0 2442:182.0 2443:148.0 2444:166.0 2445:180.0 2446:149.0 2447:163.0 2448:174.0 2449:159.0 2450:166.0 2451:172.0 2452:161.0 2453:165.0 2454:166.0 2455:162.0 2456:163.0 2457:165.0 2458:161.0 2459:163.0 2460:162.0 2461:162.0 2462:161.0 2463:159.0 2464:165.0 2465:161.0 2466:158.0 2467:167.0 2468:162.0 2469:158.0 2470:170.0 2471:162.0 2472:159.0 2473:170.0 2474:161.0 2475:156.0 2476:170.0 2477:161.0 2478:156.0 2479:171.0 2480:160.0 2481:156.0 2482:174.0 2483:163.0 2484:159.0 2485:179.0 2486:168.0 2487:164.0 2488:182.0 2489:172.0 2490:170.0 2491:183.0 2492:173.0 2493:171.0 2494:181.0 2495:175.0 2496:175.0 2497:163.0 2498:166.0 2499:173.0 2500:160.0 2501:168.0 2502:179.0 2503:160.0 2504:168.0 2505:181.0 2506:160.0 2507:170.0 2508:182.0 2509:161.0 2510:170.0 2511:185.0 2512:159.0 2513:171.0 2514:187.0 2515:158.0 2516:171.0 2517:188.0 2518:156.0 2519:172.0 2520:188.0 2521:152.0 2522:168.0 2523:184.0 2524:155.0 2525:171.0 2526:187.0 2527:158.0 2528:171.0 2529:187.0 2530:158.0 2531:171.0 2532:187.0 2533:159.0 2534:171.0 2535:187.0 2536:161.0 2537:173.0 2538:187.0 2539:163.0 2540:172.0 2541:187.0 2542:160.0 2543:169.0 2544:184.0 2545:161.0 2546:173.0 2547:187.0 2548:162.0 2549:176.0 2550:189.0 2551:163.0 2552:177.0 2553:190.0 2554:162.0 2555:176.0 2556:189.0 2557:160.0 2558:174.0 2559:187.0 2560:159.0 2561:173.0 2562:186.0 2563:161.0 2564:175.0 2565:188.0 2566:163.0 2567:177.0 2568:190.0 2569:158.0 2570:172.0 2571:185.0 2572:160.0 2573:174.0 2574:187.0 2575:162.0 2576:176.0 2577:189.0 2578:162.0 2579:176.0 2580:189.0 2581:161.0 2582:175.0 2583:188.0 2584:162.0 2585:176.0 2586:189.0 2587:165.0 2588:179.0 2589:192.0 2590:169.0 2591:183.0 2592:194.0 2593:164.0 2594:178.0 2595:187.0 2596:163.0 2597:180.0 2598:188.0 2599:167.0 2600:181.0 2601:190.0 2602:168.0 2603:182.0 2604:191.0 2605:167.0 2606:181.0 2607:190.0 2608:168.0 2609:181.0 2610:190.0 2611:169.0 2612:182.0 2613:191.0 2614:170.0 2615:183.0 2616:192.0 2617:171.0 2618:181.0 2619:191.0 2620:170.0 2621:180.0 2622:190.0 2623:170.0 2624:178.0 2625:189.0 2626:174.0 2627:182.0 2628:193.0 2629:180.0 2630:188.0 2631:199.0 2632:184.0 2633:190.0 2634:202.0 2635:182.0 2636:188.0 2637:200.0 2638:182.0 2639:186.0 2640:197.0 2641:177.0 2642:180.0 2643:185.0 2644:180.0 2645:184.0 2646:187.0 2647:184.0 2648:188.0 2649:191.0 2650:183.0 2651:187.0 2652:190.0 2653:179.0 2654:183.0 2655:186.0 2656:178.0 2657:182.0 2658:185.0 2659:183.0 2660:184.0 2661:188.0 2662:186.0 2663:187.0 2664:191.0 2665:204.0 2666:205.0 2667:209.0 2668:205.0 2669:206.0 2670:210.0 2671:200.0 2672:199.0 2673:204.0 2674:191.0 2675:190.0 2676:195.0 2677:190.0 2678:189.0 2679:194.0 2680:193.0 2681:192.0 2682:197.0 2683:191.0 2684:190.0 2685:195.0 2686:182.0 2687:183.0 2688:188.0 2689:188.0 2690:192.0 2691:203.0 2692:187.0 2693:193.0 2694:205.0 2695:188.0 2696:194.0 2697:206.0 2698:189.0 2699:195.0 2700:207.0 2701:156.0 2702:172.0 2703:185.0 2704:155.0 2705:171.0 2706:184.0 2707:154.0 2708:170.0 2709:185.0 2710:152.0 2711:170.0 2712:184.0 2713:150.0 2714:169.0 2715:184.0 2716:149.0 2717:171.0 2718:185.0 2719:151.0 2720:172.0 2721:189.0 2722:152.0 2723:175.0 2724:191.0 2725:147.0 2726:168.0 2727:185.0 2728:146.0 2729:167.0 2730:184.0 2731:145.0 2732:166.0 2733:183.0 2734:148.0 2735:167.0 2736:182.0 2737:151.0 2738:168.0 2739:184.0 2740:152.0 2741:168.0 2742:183.0 2743:150.0 2744:166.0 2745:181.0 2746:151.0 2747:165.0 2748:174.0 2749:158.0 2750:166.0 2751:169.0 2752:160.0 2753:164.0 2754:165.0 2755:158.0 2756:162.0 2757:163.0 2758:159.0 2759:161.0 2760:160.0 2761:159.0 2762:159.0 2763:157.0 2764:159.0 2765:158.0 2766:154.0 2767:162.0 2768:158.0 2769:155.0 2770:163.0 2771:158.0 2772:154.0 2773:162.0 2774:154.0 2775:151.0 2776:165.0 2777:158.0 2778:152.0 2779:170.0 2780:161.0 2781:156.0 2782:172.0 2783:163.0 2784:158.0 2785:174.0 2786:165.0 2787:160.0 2788:178.0 2789:169.0 2790:164.0 2791:182.0 2792:172.0 2793:170.0 2794:182.0 2795:176.0 2796:176.0 2797:168.0 2798:168.0 2799:176.0 2800:167.0 2801:171.0 2802:182.0 2803:167.0 2804:173.0 2805:185.0 2806:168.0 2807:174.0 2808:186.0 2809:168.0 2810:175.0 2811:191.0 2812:168.0 2813:175.0 2814:191.0 2815:166.0 2816:175.0 2817:192.0 2818:163.0 2819:175.0 2820:191.0 2821:164.0 2822:176.0 2823:192.0 2824:163.0 2825:175.0 2826:191.0 2827:164.0 2828:173.0 2829:188.0 2830:165.0 2831:174.0 2832:189.0 2833:167.0 2834:175.0 2835:188.0 2836:167.0 2837:175.0 2838:188.0 2839:170.0 2840:176.0 2841:190.0 2842:171.0 2843:177.0 2844:189.0 2845:162.0 2846:170.0 2847:181.0 2848:163.0 2849:173.0 2850:183.0 2851:165.0 2852:175.0 2853:185.0 2854:165.0 2855:175.0 2856:185.0 2857:163.0 2858:173.0 2859:183.0 2860:163.0 2861:173.0 2862:183.0 2863:165.0 2864:175.0 2865:185.0 2866:167.0 2867:177.0 2868:187.0 2869:166.0 2870:176.0 2871:186.0 2872:167.0 2873:177.0 2874:187.0 2875:168.0 2876:178.0 2877:188.0 2878:168.0 2879:178.0 2880:188.0 2881:167.0 2882:177.0 2883:187.0 2884:167.0 2885:177.0 2886:187.0 2887:169.0 2888:179.0 2889:189.0 2890:170.0 2891:180.0 2892:189.0 2893:166.0 2894:179.0 2895:185.0 2896:167.0 2897:180.0 2898:186.0 2899:167.0 2900:180.0 2901:186.0 2902:168.0 2903:181.0 2904:187.0 2905:171.0 2906:182.0 2907:188.0 2908:172.0 2909:183.0 2910:189.0 2911:174.0 2912:183.0 2913:190.0 2914:174.0 2915:183.0 2916:190.0 2917:172.0 2918:179.0 2919:187.0 2920:170.0 2921:177.0 2922:185.0 2923:170.0 2924:177.0 2925:185.0 2926:173.0 2927:180.0 2928:188.0 2929:180.0 2930:184.0 2931:193.0 2932:182.0 2933:186.0 2934:195.0 2935:181.0 2936:185.0 2937:194.0 2938:179.0 2939:182.0 2940:187.0 2941:196.0 2942:196.0 2943:196.0 2944:196.0 2945:195.0 2946:193.0 2947:190.0 2948:189.0 2949:187.0 2950:187.0 2951:186.0 2952:184.0 2953:196.0 2954:195.0 2955:193.0 2956:208.0 2957:207.0 2958:205.0 2959:207.0 2960:203.0 2961:202.0 2962:194.0 2963:190.0 2964:189.0 2965:195.0 2966:191.0 2967:190.0 2968:207.0 2969:203.0 2970:202.0 2971:224.0 2972:218.0 2973:218.0 2974:224.0 2975:218.0 2976:218.0 2977:207.0 2978:201.0 2979:201.0 2980:191.0 2981:185.0 2982:185.0 2983:195.0 2984:189.0 2985:189.0 2986:208.0 2987:204.0 2988:205.0 2989:199.0 2990:198.0 2991:204.0 2992:196.0 2993:199.0 2994:208.0 2995:196.0 2996:199.0 2997:208.0 2998:196.0 2999:199.0 3000:208.0 3001:161.0 3002:175.0 3003:186.0 3004:160.0 3005:174.0 3006:185.0 3007:159.0 3008:173.0 3009:186.0 3010:156.0 3011:172.0 3012:185.0 3013:155.0 3014:173.0 3015:187.0 3016:154.0 3017:173.0 3018:187.0 3019:155.0 3020:174.0 3021:189.0 3022:154.0 3023:176.0 3024:190.0 3025:153.0 3026:172.0 3027:187.0 3028:153.0 3029:172.0 3030:186.0 3031:153.0 3032:172.0 3033:186.0 3034:154.0 3035:172.0 3036:184.0 3037:157.0 3038:173.0 3039:186.0 3040:160.0 3041:174.0 3042:185.0 3043:159.0 3044:173.0 3045:184.0 3046:158.0 3047:171.0 3048:180.0 3049:152.0 3050:161.0 3051:168.0 3052:150.0 3053:160.0 3054:162.0 3055:148.0 3056:158.0 3057:160.0 3058:147.0 3059:155.0 3060:157.0 3061:148.0 3062:153.0 3063:156.0 3064:149.0 3065:153.0 3066:154.0 3067:149.0 3068:153.0 3069:154.0 3070:151.0 3071:153.0 3072:152.0 3073:162.0 3074:162.0 3075:162.0 3076:167.0 3077:167.0 3078:165.0 3079:172.0 3080:171.0 3081:169.0 3082:172.0 3083:171.0 3084:169.0 3085:171.0 3086:167.0 3087:166.0 3088:170.0 3089:166.0 3090:165.0 3091:175.0 3092:171.0 3093:172.0 3094:177.0 3095:175.0 3096:178.0 3097:169.0 3098:168.0 3099:174.0 3100:169.0 3101:169.0 3102:179.0 3103:169.0 3104:172.0 3105:181.0 3106:171.0 3107:174.0 3108:183.0 3109:171.0 3110:175.0 3111:187.0 3112:170.0 3113:174.0 3114:186.0 3115:167.0 3116:173.0 3117:187.0 3118:166.0 3119:172.0 3120:186.0 3121:171.0 3122:177.0 3123:191.0 3124:166.0 3125:172.0 3126:186.0 3127:165.0 3128:169.0 3129:181.0 3130:168.0 3131:172.0 3132:184.0 3133:170.0 3134:172.0 3135:184.0 3136:169.0 3137:171.0 3138:183.0 3139:174.0 3140:174.0 3141:184.0 3142:178.0 3143:181.0 3144:190.0 3145:175.0 3146:179.0 3147:188.0 3148:175.0 3149:182.0 3150:188.0 3151:177.0 3152:184.0 3153:190.0 3154:177.0 3155:184.0 3156:190.0 3157:176.0 3158:183.0 3159:189.0 3160:175.0 3161:182.0 3162:188.0 3163:175.0 3164:182.0 3165:188.0 3166:175.0 3167:182.0 3168:188.0 3169:177.0 3170:184.0 3171:190.0 3172:176.0 3173:183.0 3174:189.0 3175:174.0 3176:181.0 3177:187.0 3178:173.0 3179:180.0 3180:186.0 3181:173.0 3182:180.0 3183:186.0 3184:172.0 3185:179.0 3186:185.0 3187:170.0 3188:177.0 3189:183.0 3190:169.0 3191:176.0 3192:182.0 3193:173.0 3194:181.0 3195:184.0 3196:171.0 3197:179.0 3198:181.0 3199:169.0 3200:177.0 3201:179.0 3202:170.0 3203:178.0 3204:180.0 3205:174.0 3206:182.0 3207:184.0 3208:177.0 3209:185.0 3210:187.0 3211:177.0 3212:185.0 3213:187.0 3214:176.0 3215:184.0 3216:186.0 3217:175.0 3218:180.0 3219:183.0 3220:174.0 3221:179.0 3222:182.0 3223:173.0 3224:178.0 3225:181.0 3226:176.0 3227:181.0 3228:184.0 3229:180.0 3230:184.0 3231:187.0 3232:182.0 3233:186.0 3234:189.0 3235:180.0 3236:184.0 3237:187.0 3238:180.0 3239:181.0 3240:183.0 3241:202.0 3242:198.0 3243:195.0 3244:203.0 3245:198.0 3246:192.0 3247:195.0 3248:190.0 3249:184.0 3250:186.0 3251:181.0 3252:175.0 3253:199.0 3254:192.0 3255:186.0 3256:217.0 3257:210.0 3258:204.0 3259:213.0 3260:206.0 3261:200.0 3262:195.0 3263:188.0 3264:182.0 3265:195.0 3266:186.0 3267:181.0 3268:192.0 3269:183.0 3270:178.0 3271:205.0 3272:196.0 3273:191.0 3274:224.0 3275:215.0 3276:210.0 3277:221.0 3278:212.0 3279:207.0 3280:202.0 3281:193.0 3282:188.0 3283:198.0 3284:187.0 3285:183.0 3286:208.0 3287:200.0 3288:198.0 3289:209.0 3290:204.0 3291:208.0 3292:207.0 3293:205.0 3294:210.0 3295:207.0 3296:205.0 3297:210.0 3298:208.0 3299:206.0 3300:211.0 3301:162.0 3302:171.0 3303:178.0 3304:161.0 3305:172.0 3306:178.0 3307:161.0 3308:171.0 3309:180.0 3310:160.0 3311:173.0 3312:181.0 3313:160.0 3314:174.0 3315:183.0 3316:159.0 3317:176.0 3318:184.0 3319:158.0 3320:175.0 3321:185.0 3322:158.0 3323:175.0 3324:185.0 3325:159.0 3326:176.0 3327:186.0 3328:160.0 3329:177.0 3330:187.0 3331:162.0 3332:176.0 3333:187.0 3334:161.0 3335:175.0 3336:184.0 3337:163.0 3338:176.0 3339:184.0 3340:166.0 3341:176.0 3342:185.0 3343:165.0 3344:176.0 3345:182.0 3346:163.0 3347:174.0 3348:180.0 3349:162.0 3350:173.0 3351:179.0 3352:161.0 3353:172.0 3354:176.0 3355:160.0 3356:171.0 3357:175.0 3358:160.0 3359:169.0 3360:174.0 3361:161.0 3362:171.0 3363:173.0 3364:162.0 3365:170.0 3366:173.0 3367:165.0 3368:170.0 3369:173.0 3370:166.0 3371:171.0 3372:174.0 3373:170.0 3374:174.0 3375:177.0 3376:173.0 3377:177.0 3378:178.0 3379:178.0 3380:179.0 3381:181.0 3382:177.0 3383:178.0 3384:180.0 3385:174.0 3386:175.0 3387:177.0 3388:173.0 3389:173.0 3390:175.0 3391:175.0 3392:175.0 3393:177.0 3394:178.0 3395:178.0 3396:180.0 3397:176.0 3398:174.0 3399:179.0 3400:176.0 3401:174.0 3402:179.0 3403:176.0 3404:175.0 3405:180.0 3406:176.0 3407:175.0 3408:181.0 3409:175.0 3410:175.0 3411:183.0 3412:174.0 3413:174.0 3414:182.0 3415:171.0 3416:174.0 3417:183.0 3418:171.0 3419:174.0 3420:183.0 3421:181.0 3422:184.0 3423:193.0 3424:174.0 3425:177.0 3426:186.0 3427:174.0 3428:174.0 3429:182.0 3430:179.0 3431:179.0 3432:187.0 3433:181.0 3434:180.0 3435:186.0 3436:178.0 3437:177.0 3438:182.0 3439:182.0 3440:180.0 3441:185.0 3442:189.0 3443:188.0 3444:193.0 3445:185.0 3446:186.0 3447:190.0 3448:184.0 3449:188.0 3450:191.0 3451:185.0 3452:189.0 3453:192.0 3454:184.0 3455:188.0 3456:191.0 3457:182.0 3458:186.0 3459:189.0 3460:179.0 3461:183.0 3462:186.0 3463:177.0 3464:181.0 3465:184.0 3466:175.0 3467:179.0 3468:182.0 3469:172.0 3470:176.0 3471:179.0 3472:170.0 3473:174.0 3474:177.0 3475:169.0 3476:173.0 3477:176.0 3478:171.0 3479:175.0 3480:178.0 3481:175.0 3482:179.0 3483:182.0 3484:176.0 3485:180.0 3486:183.0 3487:175.0 3488:179.0 3489:182.0 3490:173.0 3491:177.0 3492:178.0 3493:177.0 3494:181.0 3495:180.0 3496:173.0 3497:177.0 3498:176.0 3499:170.0 3500:174.0 3501:173.0 3502:172.0 3503:176.0 3504:175.0 3505:177.0 3506:181.0 3507:180.0 3508:181.0 3509:185.0 3510:184.0 3511:181.0 3512:185.0 3513:184.0 3514:180.0 3515:184.0 3516:183.0 3517:181.0 3518:185.0 3519:184.0 3520:180.0 3521:184.0 3522:183.0 3523:182.0 3524:184.0 3525:183.0 3526:181.0 3527:185.0 3528:184.0 3529:185.0 3530:187.0 3531:186.0 3532:184.0 3533:188.0 3534:187.0 3535:185.0 3536:187.0 3537:186.0 3538:184.0 3539:184.0 3540:182.0 3541:192.0 3542:187.0 3543:181.0 3544:201.0 3545:194.0 3546:186.0 3547:200.0 3548:193.0 3549:185.0 3550:191.0 3551:184.0 3552:176.0 3553:191.0 3554:182.0 3555:175.0 3556:198.0 3557:189.0 3558:182.0 3559:200.0 3560:191.0 3561:184.0 3562:194.0 3563:185.0 3564:178.0 3565:202.0 3566:191.0 3567:185.0 3568:184.0 3569:173.0 3570:167.0 3571:183.0 3572:172.0 3573:166.0 3574:206.0 3575:195.0 3576:189.0 3577:222.0 3578:211.0 3579:205.0 3580:214.0 3581:203.0 3582:197.0 3583:207.0 3584:194.0 3585:188.0 3586:205.0 3587:194.0 3588:190.0 3589:202.0 3590:193.0 3591:194.0 3592:201.0 3593:195.0 3594:197.0 3595:203.0 3596:197.0 3597:199.0 3598:205.0 3599:199.0 3600:201.0 3601:168.0 3602:172.0 3603:173.0 3604:167.0 3605:173.0 3606:173.0 3607:167.0 3608:172.0 3609:175.0 3610:166.0 3611:174.0 3612:176.0 3613:169.0 3614:177.0 3615:180.0 3616:168.0 3617:177.0 3618:182.0 3619:167.0 3620:176.0 3621:183.0 3622:164.0 3623:175.0 3624:181.0 3625:164.0 3626:175.0 3627:181.0 3628:168.0 3629:179.0 3630:183.0 3631:169.0 3632:178.0 3633:183.0 3634:166.0 3635:174.0 3636:177.0 3637:164.0 3638:172.0 3639:174.0 3640:168.0 3641:173.0 3642:176.0 3643:167.0 3644:173.0 3645:173.0 3646:163.0 3647:168.0 3648:171.0 3649:166.0 3650:176.0 3651:178.0 3652:166.0 3653:176.0 3654:178.0 3655:166.0 3656:176.0 3657:178.0 3658:167.0 3659:177.0 3660:179.0 3661:169.0 3662:179.0 3663:181.0 3664:171.0 3665:181.0 3666:183.0 3667:174.0 3668:182.0 3669:185.0 3670:176.0 3671:184.0 3672:186.0 3673:173.0 3674:178.0 3675:181.0 3676:173.0 3677:178.0 3678:181.0 3679:174.0 3680:178.0 3681:181.0 3682:175.0 3683:179.0 3684:182.0 3685:176.0 3686:180.0 3687:181.0 3688:178.0 3689:179.0 3690:181.0 3691:177.0 3692:178.0 3693:180.0 3694:177.0 3695:177.0 3696:177.0 3697:188.0 3698:184.0 3699:183.0 3700:187.0 3701:182.0 3702:179.0 3703:184.0 3704:180.0 3705:179.0 3706:182.0 3707:178.0 3708:177.0 3709:179.0 3710:177.0 3711:178.0 3712:179.0 3713:177.0 3714:178.0 3715:179.0 3716:179.0 3717:181.0 3718:180.0 3719:180.0 3720:182.0 3721:175.0 3722:173.0 3723:176.0 3724:170.0 3725:168.0 3726:171.0 3727:172.0 3728:168.0 3729:169.0 3730:177.0 3731:173.0 3732:174.0 3733:179.0 3734:173.0 3735:173.0 3736:176.0 3737:171.0 3738:168.0 3739:180.0 3740:172.0 3741:170.0 3742:184.0 3743:179.0 3744:176.0 3745:179.0 3746:178.0 3747:176.0 3748:178.0 3749:178.0 3750:176.0 3751:178.0 3752:178.0 3753:176.0 3754:178.0 3755:178.0 3756:176.0 3757:176.0 3758:176.0 3759:174.0 3760:174.0 3761:174.0 3762:172.0 3763:171.0 3764:171.0 3765:169.0 3766:168.0 3767:168.0 3768:166.0 3769:162.0 3770:162.0 3771:160.0 3772:162.0 3773:162.0 3774:160.0 3775:164.0 3776:164.0 3777:162.0 3778:169.0 3779:169.0 3780:167.0 3781:176.0 3782:176.0 3783:174.0 3784:181.0 3785:181.0 3786:179.0 3787:181.0 3788:181.0 3789:179.0 3790:180.0 3791:180.0 3792:178.0 3793:182.0 3794:181.0 3795:177.0 3796:178.0 3797:177.0 3798:173.0 3799:174.0 3800:175.0 3801:170.0 3802:176.0 3803:177.0 3804:172.0 3805:181.0 3806:182.0 3807:177.0 3808:185.0 3809:186.0 3810:181.0 3811:185.0 3812:186.0 3813:181.0 3814:184.0 3815:185.0 3816:180.0 3817:188.0 3818:189.0 3819:184.0 3820:186.0 3821:188.0 3822:183.0 3823:188.0 3824:189.0 3825:184.0 3826:187.0 3827:189.0 3828:184.0 3829:189.0 3830:190.0 3831:185.0 3832:188.0 3833:190.0 3834:185.0 3835:188.0 3836:189.0 3837:184.0 3838:188.0 3839:187.0 3840:182.0 3841:191.0 3842:187.0 3843:178.0 3844:196.0 3845:189.0 3846:179.0 3847:201.0 3848:194.0 3849:184.0 3850:202.0 3851:195.0 3852:185.0 3853:197.0 3854:188.0 3855:179.0 3856:191.0 3857:182.0 3858:173.0 3859:193.0 3860:184.0 3861:175.0 3862:200.0 3863:191.0 3864:182.0 3865:202.0 3866:193.0 3867:184.0 3868:201.0 3869:192.0 3870:183.0 3871:205.0 3872:195.0 3873:186.0 3874:211.0 3875:201.0 3876:192.0 3877:214.0 3878:204.0 3879:195.0 3880:213.0 3881:203.0 3882:194.0 3883:213.0 3884:203.0 3885:194.0 3886:217.0 3887:206.0 3888:200.0 3889:203.0 3890:193.0 3891:191.0 3892:205.0 3893:197.0 3894:194.0 3895:209.0 3896:201.0 3897:198.0 3898:213.0 3899:205.0 3900:202.0 3901:188.0 3902:187.0 3903:183.0 3904:183.0 3905:184.0 3906:179.0 3907:179.0 3908:180.0 3909:175.0 3910:176.0 3911:178.0 3912:175.0 3913:177.0 3914:179.0 3915:178.0 3916:176.0 3917:180.0 3918:179.0 3919:175.0 3920:179.0 3921:180.0 3922:173.0 3923:179.0 3924:179.0 3925:173.0 3926:177.0 3927:178.0 3928:178.0 3929:182.0 3930:183.0 3931:178.0 3932:182.0 3933:183.0 3934:175.0 3935:177.0 3936:176.0 3937:172.0 3938:174.0 3939:171.0 3940:175.0 3941:176.0 3942:171.0 3943:175.0 3944:174.0 3945:170.0 3946:170.0 3947:171.0 3948:166.0 3949:164.0 3950:168.0 3951:167.0 3952:163.0 3953:169.0 3954:167.0 3955:164.0 3956:170.0 3957:170.0 3958:165.0 3959:171.0 3960:171.0 3961:167.0 3962:173.0 3963:173.0 3964:169.0 3965:175.0 3966:175.0 3967:173.0 3968:177.0 3969:178.0 3970:174.0 3971:178.0 3972:179.0 3973:181.0 3974:183.0 3975:182.0 3976:179.0 3977:181.0 3978:180.0 3979:177.0 3980:177.0 3981:177.0 3982:176.0 3983:176.0 3984:176.0 3985:175.0 3986:175.0 3987:173.0 3988:172.0 3989:172.0 3990:170.0 3991:168.0 3992:167.0 3993:165.0 3994:166.0 3995:162.0 3996:159.0 3997:182.0 3998:175.0 3999:169.0 4000:181.0 4001:174.0 4002:164.0 4003:179.0 4004:172.0 4005:164.0 4006:175.0 4007:171.0 4008:162.0 4009:174.0 4010:169.0 4011:163.0 4012:174.0 4013:171.0 4014:164.0 4015:175.0 4016:172.0 4017:167.0 4018:176.0 4019:173.0 4020:168.0 4021:167.0 4022:162.0 4023:158.0 4024:167.0 4025:162.0 4026:158.0 4027:170.0 4028:162.0 4029:159.0 4030:171.0 4031:164.0 4032:158.0 4033:173.0 4034:164.0 4035:157.0 4036:175.0 4037:166.0 4038:157.0 4039:177.0 4040:167.0 4041:158.0 4042:177.0 4043:168.0 4044:159.0 4045:178.0 4046:173.0 4047:167.0 4048:177.0 4049:174.0 4050:169.0 4051:177.0 4052:174.0 4053:169.0 4054:178.0 4055:175.0 4056:170.0 4057:179.0 4058:176.0 4059:171.0 4060:179.0 4061:176.0 4062:171.0 4063:177.0 4064:174.0 4065:169.0 4066:175.0 4067:172.0 4068:167.0 4069:176.0 4070:173.0 4071:168.0 4072:177.0 4073:174.0 4074:169.0 4075:178.0 4076:175.0 4077:170.0 4078:181.0 4079:178.0 4080:173.0 4081:184.0 4082:181.0 4083:176.0 4084:185.0 4085:182.0 4086:177.0 4087:184.0 4088:181.0 4089:176.0 4090:183.0 4091:180.0 4092:175.0 4093:187.0 4094:182.0 4095:178.0 4096:183.0 4097:180.0 4098:173.0 4099:182.0 4100:179.0 4101:174.0 4102:183.0 4103:180.0 4104:173.0 4105:187.0 4106:184.0 4107:179.0 4108:189.0 4109:186.0 4110:179.0 4111:190.0 4112:187.0 4113:182.0 4114:187.0 4115:187.0 4116:179.0 4117:190.0 4118:189.0 4119:184.0 4120:189.0 4121:190.0 4122:182.0 4123:190.0 4124:191.0 4125:185.0 4126:190.0 4127:191.0 4128:183.0 4129:190.0 4130:191.0 4131:185.0 4132:190.0 4133:191.0 4134:183.0 4135:190.0 4136:191.0 4137:185.0 4138:190.0 4139:190.0 4140:182.0 4141:196.0 4142:192.0 4143:183.0 4144:191.0 4145:187.0 4146:176.0 4147:196.0 4148:189.0 4149:181.0 4150:205.0 4151:198.0 4152:188.0 4153:207.0 4154:200.0 4155:192.0 4156:200.0 4157:193.0 4158:183.0 4159:198.0 4160:191.0 4161:183.0 4162:202.0 4163:195.0 4164:185.0 4165:202.0 4166:193.0 4167:186.0 4168:212.0 4169:203.0 4170:194.0 4171:216.0 4172:207.0 4173:200.0 4174:210.0 4175:201.0 4176:192.0 4177:206.0 4178:195.0 4179:189.0 4180:206.0 4181:197.0 4182:188.0 4183:209.0 4184:198.0 4185:192.0 4186:208.0 4187:197.0 4188:191.0 4189:209.0 4190:198.0 4191:192.0 4192:212.0 4193:201.0 4194:195.0 4195:216.0 4196:205.0 4197:201.0 4198:219.0 4199:208.0 4200:202.0 4201:216.0 4202:209.0 4203:201.0 4204:207.0 4205:200.0 4206:192.0 4207:195.0 4208:188.0 4209:180.0 4210:184.0 4211:179.0 4212:173.0 4213:181.0 4214:178.0 4215:171.0 4216:180.0 4217:179.0 4218:174.0 4219:181.0 4220:180.0 4221:176.0 4222:180.0 4223:181.0 4224:176.0 4225:180.0 4226:179.0 4227:175.0 4228:187.0 4229:186.0 4230:181.0 4231:188.0 4232:187.0 4233:182.0 4234:184.0 4235:181.0 4236:174.0 4237:182.0 4238:177.0 4239:171.0 4240:185.0 4241:181.0 4242:172.0 4243:187.0 4244:180.0 4245:172.0 4246:182.0 4247:175.0 4248:167.0 4249:181.0 4250:178.0 4251:169.0 4252:181.0 4253:178.0 4254:169.0 4255:180.0 4256:177.0 4257:170.0 4258:179.0 4259:176.0 4260:169.0 4261:180.0 4262:177.0 4263:170.0 4264:181.0 4265:178.0 4266:171.0 4267:182.0 4268:179.0 4269:172.0 4270:183.0 4271:180.0 4272:173.0 4273:184.0 4274:181.0 4275:176.0 4276:184.0 4277:181.0 4278:176.0 4279:184.0 4280:179.0 4281:173.0 4282:180.0 4283:175.0 4284:169.0 4285:177.0 4286:170.0 4287:164.0 4288:171.0 4289:164.0 4290:158.0 4291:167.0 4292:160.0 4293:154.0 4294:165.0 4295:156.0 4296:147.0 4297:173.0 4298:163.0 4299:151.0 4300:174.0 4301:165.0 4302:150.0 4303:175.0 4304:165.0 4305:153.0 4306:175.0 4307:167.0 4308:154.0 4309:175.0 4310:167.0 4311:156.0 4312:174.0 4313:168.0 4314:156.0 4315:174.0 4316:167.0 4317:157.0 4318:172.0 4319:168.0 4320:157.0 4321:180.0 4322:173.0 4323:163.0 4324:184.0 4325:178.0 4326:166.0 4327:184.0 4328:176.0 4329:165.0 4330:178.0 4331:170.0 4332:157.0 4333:181.0 4334:172.0 4335:157.0 4336:191.0 4337:179.0 4338:163.0 4339:195.0 4340:182.0 4341:166.0 4342:191.0 4343:179.0 4344:165.0 4345:185.0 4346:178.0 4347:168.0 4348:181.0 4349:177.0 4350:168.0 4351:180.0 4352:176.0 4353:167.0 4354:182.0 4355:178.0 4356:169.0 4357:185.0 4358:181.0 4359:172.0 4360:186.0 4361:182.0 4362:173.0 4363:185.0 4364:181.0 4365:172.0 4366:183.0 4367:179.0 4368:170.0 4369:186.0 4370:182.0 4371:173.0 4372:188.0 4373:184.0 4374:175.0 4375:190.0 4376:186.0 4377:177.0 4378:191.0 4379:187.0 4380:178.0 4381:189.0 4382:185.0 4383:176.0 4384:188.0 4385:184.0 4386:175.0 4387:187.0 4388:183.0 4389:174.0 4390:187.0 4391:183.0 4392:174.0 4393:191.0 4394:184.0 4395:176.0 4396:191.0 4397:184.0 4398:176.0 4399:192.0 4400:185.0 4401:179.0 4402:190.0 4403:186.0 4404:177.0 4405:191.0 4406:186.0 4407:180.0 4408:192.0 4409:188.0 4410:179.0 4411:193.0 4412:188.0 4413:182.0 4414:192.0 4415:189.0 4416:180.0 4417:193.0 4418:190.0 4419:183.0 4420:192.0 4421:192.0 4422:182.0 4423:193.0 4424:193.0 4425:185.0 4426:193.0 4427:193.0 4428:183.0 4429:193.0 4430:193.0 4431:185.0 4432:192.0 4433:192.0 4434:182.0 4435:191.0 4436:192.0 4437:184.0 4438:193.0 4439:193.0 4440:183.0 4441:196.0 4442:193.0 4443:186.0 4444:193.0 4445:190.0 4446:181.0 4447:194.0 4448:189.0 4449:183.0 4450:199.0 4451:195.0 4452:186.0 4453:204.0 4454:199.0 4455:193.0 4456:203.0 4457:199.0 4458:190.0 4459:201.0 4460:196.0 4461:190.0 4462:200.0 4463:196.0 4464:187.0 4465:203.0 4466:196.0 4467:190.0 4468:204.0 4469:197.0 4470:189.0 4471:200.0 4472:193.0 4473:187.0 4474:195.0 4475:188.0 4476:180.0 4477:197.0 4478:188.0 4479:183.0 4480:200.0 4481:193.0 4482:185.0 4483:199.0 4484:190.0 4485:185.0 4486:193.0 4487:184.0 4488:177.0 4489:201.0 4490:188.0 4491:182.0 4492:201.0 4493:188.0 4494:180.0 4495:201.0 4496:188.0 4497:182.0 4498:202.0 4499:189.0 4500:181.0 4501:236.0 4502:226.0 4503:216.0 4504:222.0 4505:212.0 4506:202.0 4507:202.0 4508:193.0 4509:184.0 4510:187.0 4511:180.0 4512:170.0 4513:182.0 4514:175.0 4515:167.0 4516:181.0 4517:177.0 4518:168.0 4519:182.0 4520:179.0 4521:172.0 4522:184.0 4523:181.0 4524:174.0 4525:180.0 4526:177.0 4527:170.0 4528:188.0 4529:185.0 4530:178.0 4531:191.0 4532:187.0 4533:178.0 4534:184.0 4535:180.0 4536:171.0 4537:184.0 4538:175.0 4539:166.0 4540:188.0 4541:179.0 4542:170.0 4543:190.0 4544:180.0 4545:170.0 4546:185.0 4547:177.0 4548:166.0 4549:189.0 4550:181.0 4551:170.0 4552:187.0 4553:181.0 4554:169.0 4555:184.0 4556:178.0 4557:166.0 4558:182.0 4559:176.0 4560:164.0 4561:181.0 4562:174.0 4563:164.0 4564:180.0 4565:173.0 4566:163.0 4567:180.0 4568:173.0 4569:163.0 4570:180.0 4571:173.0 4572:163.0 4573:176.0 4574:169.0 4575:161.0 4576:181.0 4577:174.0 4578:166.0 4579:185.0 4580:176.0 4581:167.0 4582:184.0 4583:175.0 4584:166.0 4585:180.0 4586:170.0 4587:161.0 4588:177.0 4589:167.0 4590:158.0 4591:177.0 4592:167.0 4593:158.0 4594:179.0 4595:169.0 4596:159.0 4597:177.0 4598:165.0 4599:149.0 4600:180.0 4601:169.0 4602:151.0 4603:183.0 4604:174.0 4605:157.0 4606:186.0 4607:177.0 4608:160.0 4609:187.0 4610:180.0 4611:164.0 4612:187.0 4613:180.0 4614:164.0 4615:184.0 4616:178.0 4617:164.0 4618:182.0 4619:176.0 4620:162.0 4621:179.0 4622:171.0 4623:158.0 4624:186.0 4625:178.0 4626:165.0 4627:184.0 4628:175.0 4629:160.0 4630:174.0 4631:165.0 4632:148.0 4633:177.0 4634:165.0 4635:149.0 4636:190.0 4637:179.0 4638:161.0 4639:199.0 4640:184.0 4641:165.0 4642:191.0 4643:178.0 4644:161.0 4645:185.0 4646:177.0 4647:166.0 4648:181.0 4649:174.0 4650:164.0 4651:179.0 4652:172.0 4653:162.0 4654:180.0 4655:173.0 4656:163.0 4657:182.0 4658:175.0 4659:165.0 4660:183.0 4661:176.0 4662:166.0 4663:182.0 4664:175.0 4665:165.0 4666:180.0 4667:173.0 4668:163.0 4669:175.0 4670:168.0 4671:158.0 4672:180.0 4673:173.0 4674:163.0 4675:186.0 4676:179.0 4677:169.0 4678:189.0 4679:182.0 4680:172.0 4681:191.0 4682:184.0 4683:174.0 4684:192.0 4685:185.0 4686:175.0 4687:195.0 4688:188.0 4689:178.0 4690:197.0 4691:190.0 4692:180.0 4693:194.0 4694:185.0 4695:178.0 4696:196.0 4697:187.0 4698:180.0 4699:197.0 4700:190.0 4701:182.0 4702:197.0 4703:190.0 4704:182.0 4705:196.0 4706:189.0 4707:181.0 4708:196.0 4709:189.0 4710:181.0 4711:195.0 4712:191.0 4713:182.0 4714:196.0 4715:192.0 4716:183.0 4717:194.0 4718:191.0 4719:182.0 4720:196.0 4721:193.0 4722:184.0 4723:195.0 4724:195.0 4725:185.0 4726:196.0 4727:196.0 4728:186.0 4729:195.0 4730:195.0 4731:185.0 4732:194.0 4733:194.0 4734:184.0 4735:194.0 4736:196.0 4737:185.0 4738:194.0 4739:196.0 4740:185.0 4741:194.0 4742:191.0 4743:184.0 4744:201.0 4745:198.0 4746:191.0 4747:203.0 4748:200.0 4749:193.0 4750:197.0 4751:194.0 4752:187.0 4753:195.0 4754:192.0 4755:185.0 4756:200.0 4757:197.0 4758:190.0 4759:203.0 4760:198.0 4761:192.0 4762:201.0 4763:196.0 4764:190.0 4765:201.0 4766:196.0 4767:190.0 4768:198.0 4769:193.0 4770:187.0 4771:195.0 4772:188.0 4773:182.0 4774:190.0 4775:183.0 4776:177.0 4777:188.0 4778:181.0 4779:175.0 4780:191.0 4781:184.0 4782:178.0 4783:198.0 4784:191.0 4785:185.0 4786:203.0 4787:194.0 4788:187.0 4789:202.0 4790:189.0 4791:183.0 4792:201.0 4793:186.0 4794:179.0 4795:198.0 4796:183.0 4797:176.0 4798:195.0 4799:180.0 4800:173.0 
1.0 1.0 1.0 1.0 1.0 0.75 0.5 1:122.0 2:137.0 3:166.0 4:122.0 5:137.0 6:166.0 7:122.0 8:139.0 9:169.0 10:120.0 11:139.0 12:169.0 13:121.0 14:140.0 15:172.0 16:120.0 17:141.0 18:172.0 19:119.0 20:143.0 21:171.0 22:119.0 23:143.0 24:171.0 25:127.0 26:147.0 27:174.0 28:125.0 29:142.0 30:168.0 31:124.0 32:138.0 33:164.0 34:133.0 35:144.0 36:166.0 37:142.0 38:148.0 39:170.0 40:139.0 41:142.0 42:161.0 43:140.0 44:141.0 45:161.0 46:156.0 47:155.0 48:171.0 49:172.0 50:170.0 51:184.0 52:153.0 53:152.0 54:166.0 55:142.0 56:144.0 57:159.0 58:139.0 59:144.0 60:163.0 61:135.0 62:143.0 63:164.0 64:134.0 65:146.0 66:170.0 67:134.0 68:150.0 69:176.0 70:128.0 71:145.0 72:173.0 73:127.0 74:146.0 75:176.0 76:127.0 77:146.0 78:176.0 79:129.0 80:146.0 81:174.0 82:129.0 83:146.0 84:172.0 85:131.0 86:145.0 87:171.0 88:131.0 89:146.0 90:169.0 91:134.0 92:145.0 93:167.0 94:133.0 95:145.0 96:167.0 97:131.0 98:147.0 99:172.0 100:130.0 101:148.0 102:172.0 103:130.0 104:148.0 105:172.0 106:130.0 107:148.0 108:172.0 109:129.0 110:147.0 111:171.0 112:128.0 113:146.0 114:170.0 115:127.0 116:145.0 117:169.0 118:127.0 119:145.0 120:169.0 121:125.0 122:143.0 123:167.0 124:125.0 125:143.0 126:167.0 127:125.0 128:143.0 129:167.0 130:124.0 131:142.0 132:166.0 133:124.0 134:142.0 135:166.0 136:123.0 137:141.0 138:165.0 139:123.0 140:141.0 141:165.0 142:123.0 143:141.0 144:165.0 145:124.0 146:140.0 147:165.0 148:124.0 149:140.0 150:165.0 151:124.0 152:140.0 153:165.0 154:123.0 155:139.0 156:164.0 157:123.0 158:139.0 159:164.0 160:122.0 161:138.0 162:163.0 163:122.0 164:138.0 165:163.0 166:122.0 167:138.0 168:163.0 169:121.0 170:137.0 171:162.0 172:120.0 173:136.0 174:161.0 175:119.0 176:135.0 177:160.0 178:118.0 179:134.0 180:159.0 181:117.0 182:133.0 183:158.0 184:117.0 185:133.0 186:158.0 187:117.0 188:133.0 189:158.0 190:117.0 191:133.0 192:158.0 193:114.0 194:132.0 195:156.0 196:114.0 197:132.0 198:156.0 199:114.0 200:132.0 201:156.0 202:113.0 203:131.0 204:155.0 205:113.0 206:131.0 207:155.0 208:112.0 209:130.0 210:154.0 211:112.0 212:130.0 213:154.0 214:112.0 215:130.0 216:154.0 217:110.0 218:128.0 219:152.0 220:110.0 221:128.0 222:152.0 223:110.0 224:128.0 225:152.0 226:109.0 227:127.0 228:151.0 229:108.0 230:126.0 231:150.0 232:107.0 233:125.0 234:149.0 235:107.0 236:125.0 237:149.0 238:106.0 239:124.0 240:148.0 241:107.0 242:124.0 243:150.0 244:107.0 245:124.0 246:150.0 247:106.0 248:123.0 249:149.0 250:105.0 251:122.0 252:148.0 253:104.0 254:121.0 255:147.0 256:104.0 257:121.0 258:147.0 259:103.0 260:120.0 261:146.0 262:103.0 263:120.0 264:146.0 265:101.0 266:118.0 267:144.0 268:100.0 269:117.0 270:143.0 271:99.0 272:116.0 273:142.0 274:98.0 275:115.0 276:141.0 277:97.0 278:114.0 279:140.0 280:96.0 281:113.0 282:139.0 283:96.0 284:113.0 285:139.0 286:97.0 287:114.0 288:140.0 289:97.0 290:113.0 291:138.0 292:96.0 293:112.0 294:137.0 295:96.0 296:112.0 297:137.0 298:95.0 299:111.0 300:136.0 301:124.0 302:139.0 303:168.0 304:124.0 305:139.0 306:168.0 307:124.0 308:141.0 309:171.0 310:122.0 311:141.0 312:171.0 313:122.0 314:143.0 315:174.0 316:122.0 317:143.0 318:174.0 319:121.0 320:145.0 321:173.0 322:121.0 323:145.0 324:173.0 325:122.0 326:143.0 327:170.0 328:128.0 329:145.0 330:171.0 331:128.0 332:142.0 333:168.0 334:132.0 335:143.0 336:165.0 337:146.0 338:152.0 339:174.0 340:154.0 341:159.0 342:179.0 343:162.0 344:163.0 345:183.0 346:175.0 347:174.0 348:190.0 349:167.0 350:166.0 351:180.0 352:165.0 353:164.0 354:178.0 355:167.0 356:170.0 357:187.0 358:161.0 359:166.0 360:185.0 361:140.0 362:148.0 363:169.0 364:129.0 365:141.0 366:165.0 367:132.0 368:148.0 369:174.0 370:135.0 371:152.0 372:180.0 373:128.0 374:147.0 375:177.0 376:128.0 377:147.0 378:177.0 379:130.0 380:147.0 381:175.0 382:130.0 383:147.0 384:173.0 385:132.0 386:146.0 387:172.0 388:132.0 389:147.0 390:170.0 391:134.0 392:146.0 393:168.0 394:134.0 395:146.0 396:170.0 397:131.0 398:147.0 399:172.0 400:130.0 401:148.0 402:172.0 403:130.0 404:148.0 405:172.0 406:130.0 407:148.0 408:172.0 409:130.0 410:148.0 411:172.0 412:129.0 413:147.0 414:171.0 415:128.0 416:146.0 417:170.0 418:127.0 419:145.0 420:169.0 421:127.0 422:145.0 423:169.0 424:127.0 425:145.0 426:169.0 427:127.0 428:145.0 429:169.0 430:126.0 431:144.0 432:168.0 433:126.0 434:144.0 435:168.0 436:125.0 437:143.0 438:167.0 439:125.0 440:143.0 441:167.0 442:125.0 443:143.0 444:167.0 445:125.0 446:141.0 447:166.0 448:125.0 449:141.0 450:166.0 451:124.0 452:140.0 453:165.0 454:124.0 455:140.0 456:165.0 457:123.0 458:139.0 459:164.0 460:123.0 461:139.0 462:164.0 463:122.0 464:138.0 465:163.0 466:122.0 467:138.0 468:163.0 469:122.0 470:138.0 471:163.0 472:121.0 473:137.0 474:162.0 475:120.0 476:136.0 477:161.0 478:119.0 479:135.0 480:160.0 481:118.0 482:134.0 483:159.0 484:118.0 485:134.0 486:159.0 487:118.0 488:134.0 489:159.0 490:118.0 491:134.0 492:159.0 493:116.0 494:134.0 495:158.0 496:116.0 497:134.0 498:158.0 499:116.0 500:134.0 501:158.0 502:115.0 503:133.0 504:157.0 505:115.0 506:133.0 507:157.0 508:114.0 509:132.0 510:156.0 511:114.0 512:132.0 513:156.0 514:113.0 515:131.0 516:155.0 517:112.0 518:130.0 519:154.0 520:112.0 521:130.0 522:154.0 523:111.0 524:129.0 525:153.0 526:111.0 527:129.0 528:153.0 529:110.0 530:128.0 531:152.0 532:109.0 533:127.0 534:151.0 535:109.0 536:127.0 537:151.0 538:108.0 539:126.0 540:150.0 541:108.0 542:125.0 543:151.0 544:107.0 545:124.0 546:150.0 547:107.0 548:124.0 549:150.0 550:106.0 551:123.0 552:149.0 553:105.0 554:122.0 555:148.0 556:104.0 557:121.0 558:147.0 559:104.0 560:121.0 561:147.0 562:104.0 563:121.0 564:147.0 565:102.0 566:119.0 567:145.0 568:101.0 569:118.0 570:144.0 571:100.0 572:117.0 573:143.0 574:99.0 575:116.0 576:142.0 577:98.0 578:115.0 579:141.0 580:97.0 581:114.0 582:140.0 583:97.0 584:114.0 585:140.0 586:97.0 587:114.0 588:140.0 589:98.0 590:114.0 591:140.0 592:98.0 593:114.0 594:139.0 595:97.0 596:113.0 597:138.0 598:96.0 599:112.0 600:137.0 601:127.0 602:142.0 603:173.0 604:127.0 605:142.0 606:173.0 607:126.0 608:143.0 609:173.0 610:125.0 611:144.0 612:174.0 613:124.0 614:145.0 615:176.0 616:123.0 617:146.0 618:177.0 619:123.0 620:147.0 621:175.0 622:123.0 623:147.0 624:175.0 625:122.0 626:143.0 627:170.0 628:131.0 629:151.0 630:176.0 631:131.0 632:147.0 633:172.0 634:130.0 635:142.0 636:164.0 637:145.0 638:153.0 639:174.0 640:161.0 641:166.0 642:186.0 643:177.0 644:178.0 645:198.0 646:188.0 647:189.0 648:207.0 649:179.0 650:181.0 651:196.0 652:171.0 653:173.0 654:186.0 655:169.0 656:172.0 657:189.0 658:163.0 659:170.0 660:189.0 661:146.0 662:157.0 663:179.0 664:136.0 665:150.0 666:176.0 667:135.0 668:151.0 669:177.0 670:131.0 671:148.0 672:176.0 673:130.0 674:149.0 675:179.0 676:130.0 677:149.0 678:179.0 679:132.0 680:149.0 681:177.0 682:132.0 683:149.0 684:175.0 685:134.0 686:148.0 687:174.0 688:134.0 689:149.0 690:172.0 691:136.0 692:148.0 693:170.0 694:134.0 695:149.0 696:172.0 697:132.0 698:148.0 699:173.0 700:131.0 701:148.0 702:174.0 703:131.0 704:148.0 705:174.0 706:131.0 707:148.0 708:174.0 709:131.0 710:148.0 711:174.0 712:130.0 713:147.0 714:173.0 715:129.0 716:146.0 717:172.0 718:128.0 719:145.0 720:171.0 721:130.0 722:147.0 723:173.0 724:130.0 725:147.0 726:173.0 727:129.0 728:146.0 729:172.0 730:129.0 731:146.0 732:172.0 733:128.0 734:145.0 735:171.0 736:128.0 737:145.0 738:171.0 739:127.0 740:144.0 741:170.0 742:127.0 743:144.0 744:170.0 745:126.0 746:142.0 747:168.0 748:126.0 749:142.0 750:168.0 751:125.0 752:141.0 753:167.0 754:125.0 755:141.0 756:167.0 757:124.0 758:140.0 759:166.0 760:124.0 761:140.0 762:166.0 763:123.0 764:139.0 765:165.0 766:123.0 767:139.0 768:165.0 769:124.0 770:140.0 771:166.0 772:123.0 773:139.0 774:165.0 775:122.0 776:138.0 777:164.0 778:121.0 779:137.0 780:163.0 781:120.0 782:136.0 783:162.0 784:120.0 785:136.0 786:162.0 787:120.0 788:136.0 789:162.0 790:120.0 791:136.0 792:162.0 793:118.0 794:135.0 795:161.0 796:118.0 797:135.0 798:161.0 799:118.0 800:135.0 801:161.0 802:117.0 803:134.0 804:160.0 805:117.0 806:134.0 807:160.0 808:116.0 809:133.0 810:159.0 811:116.0 812:133.0 813:159.0 814:116.0 815:133.0 816:159.0 817:115.0 818:132.0 819:158.0 820:114.0 821:131.0 822:157.0 823:114.0 824:131.0 825:157.0 826:113.0 827:130.0 828:156.0 829:112.0 830:129.0 831:155.0 832:111.0 833:128.0 834:154.0 835:111.0 836:128.0 837:154.0 838:111.0 839:128.0 840:154.0 841:109.0 842:126.0 843:154.0 844:109.0 845:126.0 846:154.0 847:108.0 848:125.0 849:153.0 850:107.0 851:124.0 852:152.0 853:107.0 854:124.0 855:152.0 856:106.0 857:123.0 858:151.0 859:105.0 860:122.0 861:150.0 862:105.0 863:122.0 864:150.0 865:103.0 866:120.0 867:148.0 868:103.0 869:120.0 870:148.0 871:101.0 872:118.0 873:146.0 874:100.0 875:117.0 876:145.0 877:99.0 878:116.0 879:144.0 880:99.0 881:116.0 882:144.0 883:99.0 884:116.0 885:144.0 886:99.0 887:116.0 888:142.0 889:100.0 890:116.0 891:142.0 892:99.0 893:115.0 894:141.0 895:98.0 896:114.0 897:140.0 898:98.0 899:114.0 900:140.0 901:128.0 902:143.0 903:174.0 904:128.0 905:145.0 906:175.0 907:126.0 908:145.0 909:175.0 910:126.0 911:147.0 912:176.0 913:124.0 914:147.0 915:178.0 916:125.0 917:148.0 918:179.0 919:125.0 920:149.0 921:177.0 922:125.0 923:149.0 924:177.0 925:127.0 926:148.0 927:175.0 928:134.0 929:154.0 930:179.0 931:134.0 932:150.0 933:175.0 934:132.0 935:144.0 936:166.0 937:139.0 938:147.0 939:168.0 940:149.0 941:156.0 942:175.0 943:169.0 944:171.0 945:192.0 946:191.0 947:194.0 948:213.0 949:192.0 950:195.0 951:210.0 952:174.0 953:177.0 954:192.0 955:160.0 956:165.0 957:184.0 958:153.0 959:160.0 960:179.0 961:143.0 962:154.0 963:176.0 964:138.0 965:152.0 966:178.0 967:138.0 968:154.0 969:180.0 970:130.0 971:150.0 972:177.0 973:131.0 974:150.0 975:180.0 976:131.0 977:150.0 978:180.0 979:133.0 980:150.0 981:178.0 982:133.0 983:150.0 984:176.0 985:134.0 986:150.0 987:176.0 988:135.0 989:149.0 990:175.0 991:137.0 992:149.0 993:173.0 994:135.0 995:150.0 996:173.0 997:134.0 998:150.0 999:175.0 1000:133.0 1001:150.0 1002:176.0 1003:133.0 1004:150.0 1005:176.0 1006:133.0 1007:150.0 1008:176.0 1009:132.0 1010:149.0 1011:175.0 1012:131.0 1013:148.0 1014:174.0 1015:130.0 1016:147.0 1017:173.0 1018:130.0 1019:147.0 1020:173.0 1021:132.0 1022:149.0 1023:175.0 1024:132.0 1025:149.0 1026:175.0 1027:131.0 1028:148.0 1029:174.0 1030:131.0 1031:148.0 1032:174.0 1033:130.0 1034:147.0 1035:173.0 1036:130.0 1037:147.0 1038:173.0 1039:129.0 1040:146.0 1041:172.0 1042:129.0 1043:146.0 1044:172.0 1045:128.0 1046:144.0 1047:170.0 1048:128.0 1049:144.0 1050:170.0 1051:127.0 1052:143.0 1053:169.0 1054:127.0 1055:143.0 1056:169.0 1057:126.0 1058:142.0 1059:168.0 1060:126.0 1061:142.0 1062:168.0 1063:125.0 1064:141.0 1065:167.0 1066:125.0 1067:141.0 1068:167.0 1069:126.0 1070:142.0 1071:168.0 1072:125.0 1073:141.0 1074:167.0 1075:124.0 1076:140.0 1077:166.0 1078:123.0 1079:139.0 1080:165.0 1081:122.0 1082:138.0 1083:164.0 1084:122.0 1085:138.0 1086:164.0 1087:122.0 1088:138.0 1089:164.0 1090:122.0 1091:138.0 1092:164.0 1093:120.0 1094:137.0 1095:163.0 1096:120.0 1097:137.0 1098:163.0 1099:119.0 1100:136.0 1101:162.0 1102:119.0 1103:136.0 1104:162.0 1105:118.0 1106:135.0 1107:161.0 1108:118.0 1109:135.0 1110:161.0 1111:117.0 1112:134.0 1113:160.0 1114:117.0 1115:134.0 1116:160.0 1117:116.0 1118:133.0 1119:159.0 1120:116.0 1121:133.0 1122:159.0 1123:115.0 1124:132.0 1125:158.0 1126:114.0 1127:131.0 1128:157.0 1129:114.0 1130:131.0 1131:157.0 1132:113.0 1133:130.0 1134:156.0 1135:112.0 1136:129.0 1137:155.0 1138:112.0 1139:129.0 1140:155.0 1141:111.0 1142:128.0 1143:156.0 1144:111.0 1145:128.0 1146:156.0 1147:110.0 1148:127.0 1149:155.0 1150:109.0 1151:126.0 1152:154.0 1153:109.0 1154:126.0 1155:154.0 1156:108.0 1157:125.0 1158:153.0 1159:107.0 1160:124.0 1161:152.0 1162:107.0 1163:124.0 1164:152.0 1165:106.0 1166:123.0 1167:151.0 1168:105.0 1169:122.0 1170:150.0 1171:104.0 1172:121.0 1173:149.0 1174:103.0 1175:120.0 1176:148.0 1177:102.0 1178:119.0 1179:147.0 1180:101.0 1181:118.0 1182:146.0 1183:101.0 1184:118.0 1185:146.0 1186:101.0 1187:118.0 1188:146.0 1189:100.0 1190:116.0 1191:142.0 1192:100.0 1193:116.0 1194:142.0 1195:99.0 1196:115.0 1197:141.0 1198:99.0 1199:115.0 1200:141.0 1201:129.0 1202:146.0 1203:176.0 1204:127.0 1205:146.0 1206:176.0 1207:127.0 1208:146.0 1209:176.0 1210:127.0 1211:148.0 1212:177.0 1213:125.0 1214:149.0 1215:177.0 1216:126.0 1217:150.0 1218:178.0 1219:125.0 1220:151.0 1221:178.0 1222:127.0 1223:151.0 1224:179.0 1225:130.0 1226:151.0 1227:178.0 1228:132.0 1229:152.0 1230:177.0 1231:133.0 1232:151.0 1233:175.0 1234:136.0 1235:151.0 1236:172.0 1237:137.0 1238:148.0 1239:168.0 1240:136.0 1241:144.0 1242:163.0 1243:156.0 1244:163.0 1245:182.0 1246:192.0 1247:197.0 1248:216.0 1249:190.0 1250:196.0 1251:212.0 1252:177.0 1253:183.0 1254:199.0 1255:166.0 1256:173.0 1257:191.0 1258:154.0 1259:162.0 1260:183.0 1261:136.0 1262:148.0 1263:170.0 1264:129.0 1265:145.0 1266:170.0 1267:136.0 1268:153.0 1269:179.0 1270:137.0 1271:157.0 1272:184.0 1273:132.0 1274:152.0 1275:179.0 1276:131.0 1277:152.0 1278:179.0 1279:132.0 1280:152.0 1281:179.0 1282:134.0 1283:151.0 1284:177.0 1285:135.0 1286:151.0 1287:177.0 1288:135.0 1289:151.0 1290:176.0 1291:136.0 1292:151.0 1293:174.0 1294:136.0 1295:151.0 1296:174.0 1297:136.0 1298:152.0 1299:177.0 1300:135.0 1301:152.0 1302:178.0 1303:135.0 1304:152.0 1305:178.0 1306:135.0 1307:152.0 1308:178.0 1309:135.0 1310:152.0 1311:178.0 1312:134.0 1313:151.0 1314:177.0 1315:133.0 1316:150.0 1317:176.0 1318:132.0 1319:149.0 1320:175.0 1321:133.0 1322:150.0 1323:176.0 1324:133.0 1325:150.0 1326:176.0 1327:132.0 1328:149.0 1329:175.0 1330:132.0 1331:149.0 1332:175.0 1333:131.0 1334:148.0 1335:174.0 1336:131.0 1337:148.0 1338:174.0 1339:130.0 1340:147.0 1341:173.0 1342:130.0 1343:147.0 1344:173.0 1345:130.0 1346:147.0 1347:173.0 1348:130.0 1349:147.0 1350:173.0 1351:129.0 1352:146.0 1353:172.0 1354:129.0 1355:146.0 1356:172.0 1357:128.0 1358:145.0 1359:171.0 1360:128.0 1361:145.0 1362:171.0 1363:127.0 1364:144.0 1365:170.0 1366:127.0 1367:144.0 1368:170.0 1369:127.0 1370:144.0 1371:170.0 1372:127.0 1373:144.0 1374:170.0 1375:126.0 1376:143.0 1377:169.0 1378:124.0 1379:141.0 1380:167.0 1381:124.0 1382:141.0 1383:167.0 1384:123.0 1385:140.0 1386:166.0 1387:123.0 1388:140.0 1389:166.0 1390:123.0 1391:140.0 1392:166.0 1393:121.0 1394:138.0 1395:164.0 1396:121.0 1397:138.0 1398:164.0 1399:120.0 1400:137.0 1401:163.0 1402:120.0 1403:137.0 1404:163.0 1405:119.0 1406:136.0 1407:162.0 1408:119.0 1409:136.0 1410:162.0 1411:118.0 1412:135.0 1413:161.0 1414:118.0 1415:135.0 1416:161.0 1417:117.0 1418:134.0 1419:160.0 1420:117.0 1421:134.0 1422:160.0 1423:116.0 1424:133.0 1425:159.0 1426:115.0 1427:132.0 1428:158.0 1429:115.0 1430:132.0 1431:158.0 1432:114.0 1433:131.0 1434:157.0 1435:113.0 1436:130.0 1437:156.0 1438:113.0 1439:130.0 1440:156.0 1441:113.0 1442:130.0 1443:158.0 1444:113.0 1445:130.0 1446:158.0 1447:112.0 1448:129.0 1449:157.0 1450:111.0 1451:128.0 1452:156.0 1453:111.0 1454:128.0 1455:156.0 1456:110.0 1457:127.0 1458:155.0 1459:109.0 1460:126.0 1461:154.0 1462:109.0 1463:126.0 1464:154.0 1465:108.0 1466:125.0 1467:153.0 1468:107.0 1469:124.0 1470:152.0 1471:106.0 1472:123.0 1473:151.0 1474:105.0 1475:122.0 1476:150.0 1477:104.0 1478:121.0 1479:149.0 1480:104.0 1481:121.0 1482:149.0 1483:104.0 1484:121.0 1485:149.0 1486:104.0 1487:121.0 1488:149.0 1489:100.0 1490:117.0 1491:143.0 1492:100.0 1493:117.0 1494:143.0 1495:99.0 1496:116.0 1497:142.0 1498:98.0 1499:115.0 1500:141.0 1501:129.0 1502:148.0 1503:178.0 1504:129.0 1505:148.0 1506:178.0 1507:128.0 1508:149.0 1509:178.0 1510:129.0 1511:150.0 1512:179.0 1513:127.0 1514:151.0 1515:179.0 1516:128.0 1517:152.0 1518:180.0 1519:127.0 1520:153.0 1521:180.0 1522:128.0 1523:152.0 1524:178.0 1525:131.0 1526:153.0 1527:177.0 1528:129.0 1529:149.0 1530:173.0 1531:132.0 1532:150.0 1533:172.0 1534:141.0 1535:157.0 1536:180.0 1537:143.0 1538:155.0 1539:177.0 1540:135.0 1541:146.0 1542:166.0 1543:154.0 1544:162.0 1545:183.0 1546:191.0 1547:198.0 1548:217.0 1549:193.0 1550:200.0 1551:218.0 1552:175.0 1553:182.0 1554:200.0 1555:163.0 1556:171.0 1557:190.0 1558:156.0 1559:167.0 1560:187.0 1561:144.0 1562:159.0 1563:180.0 1564:140.0 1565:156.0 1566:181.0 1567:138.0 1568:155.0 1569:181.0 1570:131.0 1571:151.0 1572:178.0 1573:134.0 1574:155.0 1575:182.0 1576:134.0 1577:155.0 1578:182.0 1579:135.0 1580:155.0 1581:182.0 1582:135.0 1583:155.0 1584:180.0 1585:138.0 1586:154.0 1587:179.0 1588:138.0 1589:154.0 1590:177.0 1591:139.0 1592:154.0 1593:177.0 1594:138.0 1595:154.0 1596:177.0 1597:139.0 1598:155.0 1599:180.0 1600:138.0 1601:155.0 1602:181.0 1603:138.0 1604:155.0 1605:181.0 1606:138.0 1607:155.0 1608:181.0 1609:137.0 1610:154.0 1611:180.0 1612:137.0 1613:154.0 1614:180.0 1615:136.0 1616:153.0 1617:179.0 1618:135.0 1619:152.0 1620:178.0 1621:135.0 1622:152.0 1623:178.0 1624:135.0 1625:152.0 1626:178.0 1627:134.0 1628:151.0 1629:177.0 1630:134.0 1631:151.0 1632:177.0 1633:133.0 1634:150.0 1635:176.0 1636:133.0 1637:150.0 1638:176.0 1639:132.0 1640:149.0 1641:175.0 1642:132.0 1643:149.0 1644:175.0 1645:133.0 1646:150.0 1647:176.0 1648:133.0 1649:150.0 1650:176.0 1651:132.0 1652:149.0 1653:175.0 1654:132.0 1655:149.0 1656:175.0 1657:131.0 1658:148.0 1659:174.0 1660:131.0 1661:148.0 1662:174.0 1663:130.0 1664:147.0 1665:173.0 1666:130.0 1667:147.0 1668:173.0 1669:130.0 1670:147.0 1671:173.0 1672:129.0 1673:146.0 1674:172.0 1675:128.0 1676:145.0 1677:171.0 1678:127.0 1679:144.0 1680:170.0 1681:126.0 1682:143.0 1683:169.0 1684:125.0 1685:142.0 1686:168.0 1687:125.0 1688:142.0 1689:168.0 1690:126.0 1691:143.0 1692:169.0 1693:122.0 1694:139.0 1695:165.0 1696:122.0 1697:139.0 1698:165.0 1699:122.0 1700:139.0 1701:165.0 1702:121.0 1703:138.0 1704:164.0 1705:121.0 1706:138.0 1707:164.0 1708:120.0 1709:137.0 1710:163.0 1711:120.0 1712:137.0 1713:163.0 1714:120.0 1715:137.0 1716:163.0 1717:118.0 1718:135.0 1719:161.0 1720:118.0 1721:135.0 1722:161.0 1723:118.0 1724:135.0 1725:161.0 1726:117.0 1727:134.0 1728:160.0 1729:116.0 1730:133.0 1731:159.0 1732:115.0 1733:132.0 1734:158.0 1735:115.0 1736:132.0 1737:158.0 1738:114.0 1739:131.0 1740:157.0 1741:115.0 1742:132.0 1743:160.0 1744:115.0 1745:132.0 1746:160.0 1747:114.0 1748:131.0 1749:159.0 1750:113.0 1751:130.0 1752:158.0 1753:113.0 1754:130.0 1755:158.0 1756:112.0 1757:129.0 1758:157.0 1759:111.0 1760:128.0 1761:156.0 1762:111.0 1763:128.0 1764:156.0 1765:110.0 1766:127.0 1767:155.0 1768:109.0 1769:126.0 1770:154.0 1771:108.0 1772:125.0 1773:153.0 1774:107.0 1775:124.0 1776:152.0 1777:106.0 1778:123.0 1779:151.0 1780:106.0 1781:123.0 1782:151.0 1783:106.0 1784:123.0 1785:151.0 1786:106.0 1787:123.0 1788:149.0 1789:102.0 1790:119.0 1791:145.0 1792:102.0 1793:119.0 1794:145.0 1795:101.0 1796:118.0 1797:144.0 1798:100.0 1799:117.0 1800:143.0 1801:131.0 1802:150.0 1803:180.0 1804:131.0 1805:150.0 1806:180.0 1807:131.0 1808:152.0 1809:181.0 1810:131.0 1811:152.0 1812:181.0 1813:130.0 1814:154.0 1815:180.0 1816:130.0 1817:154.0 1818:180.0 1819:131.0 1820:155.0 1821:181.0 1822:131.0 1823:155.0 1824:179.0 1825:133.0 1826:155.0 1827:179.0 1828:132.0 1829:152.0 1830:176.0 1831:133.0 1832:151.0 1833:173.0 1834:140.0 1835:156.0 1836:179.0 1837:146.0 1838:158.0 1839:180.0 1840:141.0 1841:152.0 1842:172.0 1843:148.0 1844:159.0 1845:179.0 1846:173.0 1847:181.0 1848:200.0 1849:186.0 1850:195.0 1851:212.0 1852:165.0 1853:174.0 1854:191.0 1855:152.0 1856:163.0 1857:181.0 1858:152.0 1859:165.0 1860:184.0 1861:150.0 1862:165.0 1863:186.0 1864:149.0 1865:165.0 1866:188.0 1867:143.0 1868:161.0 1869:185.0 1870:129.0 1871:149.0 1872:174.0 1873:138.0 1874:158.0 1875:183.0 1876:138.0 1877:158.0 1878:183.0 1879:138.0 1880:158.0 1881:183.0 1882:138.0 1883:158.0 1884:182.0 1885:141.0 1886:157.0 1887:182.0 1888:141.0 1889:157.0 1890:180.0 1891:142.0 1892:157.0 1893:180.0 1894:141.0 1895:157.0 1896:180.0 1897:141.0 1898:157.0 1899:182.0 1900:140.0 1901:158.0 1902:182.0 1903:141.0 1904:159.0 1905:183.0 1906:140.0 1907:158.0 1908:182.0 1909:140.0 1910:158.0 1911:182.0 1912:139.0 1913:157.0 1914:181.0 1915:138.0 1916:156.0 1917:180.0 1918:138.0 1919:156.0 1920:180.0 1921:137.0 1922:155.0 1923:179.0 1924:137.0 1925:155.0 1926:179.0 1927:137.0 1928:155.0 1929:179.0 1930:136.0 1931:154.0 1932:178.0 1933:136.0 1934:154.0 1935:178.0 1936:135.0 1937:153.0 1938:177.0 1939:135.0 1940:153.0 1941:177.0 1942:135.0 1943:153.0 1944:177.0 1945:136.0 1946:154.0 1947:178.0 1948:135.0 1949:153.0 1950:177.0 1951:135.0 1952:153.0 1953:177.0 1954:135.0 1955:153.0 1956:177.0 1957:134.0 1958:152.0 1959:176.0 1960:133.0 1961:151.0 1962:175.0 1963:133.0 1964:151.0 1965:175.0 1966:133.0 1967:151.0 1968:175.0 1969:131.0 1970:149.0 1971:173.0 1972:131.0 1973:149.0 1974:173.0 1975:130.0 1976:148.0 1977:172.0 1978:128.0 1979:146.0 1980:170.0 1981:128.0 1982:146.0 1983:170.0 1984:127.0 1985:145.0 1986:169.0 1987:127.0 1988:145.0 1989:169.0 1990:127.0 1991:145.0 1992:169.0 1993:125.0 1994:143.0 1995:167.0 1996:124.0 1997:142.0 1998:166.0 1999:124.0 2000:142.0 2001:166.0 2002:123.0 2003:141.0 2004:165.0 2005:123.0 2006:141.0 2007:165.0 2008:122.0 2009:140.0 2010:164.0 2011:122.0 2012:140.0 2013:164.0 2014:122.0 2015:140.0 2016:164.0 2017:121.0 2018:139.0 2019:163.0 2020:120.0 2021:138.0 2022:162.0 2023:120.0 2024:138.0 2025:162.0 2026:119.0 2027:137.0 2028:161.0 2029:118.0 2030:136.0 2031:160.0 2032:118.0 2033:136.0 2034:160.0 2035:117.0 2036:135.0 2037:159.0 2038:117.0 2039:135.0 2040:159.0 2041:116.0 2042:133.0 2043:159.0 2044:116.0 2045:133.0 2046:159.0 2047:116.0 2048:133.0 2049:159.0 2050:115.0 2051:132.0 2052:158.0 2053:114.0 2054:131.0 2055:157.0 2056:113.0 2057:130.0 2058:156.0 2059:113.0 2060:130.0 2061:156.0 2062:112.0 2063:129.0 2064:155.0 2065:112.0 2066:129.0 2067:155.0 2068:111.0 2069:128.0 2070:154.0 2071:110.0 2072:127.0 2073:153.0 2074:109.0 2075:126.0 2076:152.0 2077:108.0 2078:125.0 2079:151.0 2080:108.0 2081:125.0 2082:151.0 2083:108.0 2084:125.0 2085:151.0 2086:108.0 2087:125.0 2088:151.0 2089:105.0 2090:122.0 2091:148.0 2092:105.0 2093:123.0 2094:147.0 2095:104.0 2096:122.0 2097:146.0 2098:104.0 2099:122.0 2100:146.0 2101:133.0 2102:152.0 2103:182.0 2104:133.0 2105:152.0 2106:182.0 2107:133.0 2108:154.0 2109:183.0 2110:133.0 2111:154.0 2112:181.0 2113:134.0 2114:155.0 2115:182.0 2116:132.0 2117:156.0 2118:180.0 2119:133.0 2120:157.0 2121:181.0 2122:133.0 2123:158.0 2124:180.0 2125:137.0 2126:159.0 2127:182.0 2128:138.0 2129:159.0 2130:180.0 2131:134.0 2132:152.0 2133:174.0 2134:135.0 2135:152.0 2136:172.0 2137:142.0 2138:157.0 2139:178.0 2140:141.0 2141:153.0 2142:175.0 2143:140.0 2144:151.0 2145:171.0 2146:147.0 2147:158.0 2148:176.0 2149:165.0 2150:173.0 2151:192.0 2152:155.0 2153:167.0 2154:183.0 2155:153.0 2156:166.0 2157:183.0 2158:151.0 2159:164.0 2160:183.0 2161:138.0 2162:153.0 2163:174.0 2164:137.0 2165:153.0 2166:176.0 2167:145.0 2168:163.0 2169:185.0 2170:147.0 2171:167.0 2172:191.0 2173:141.0 2174:161.0 2175:185.0 2176:141.0 2177:161.0 2178:185.0 2179:141.0 2180:161.0 2181:185.0 2182:143.0 2183:161.0 2184:183.0 2185:144.0 2186:160.0 2187:183.0 2188:144.0 2189:161.0 2190:181.0 2191:145.0 2192:160.0 2193:181.0 2194:145.0 2195:160.0 2196:181.0 2197:143.0 2198:159.0 2199:182.0 2200:142.0 2201:160.0 2202:182.0 2203:142.0 2204:160.0 2205:184.0 2206:142.0 2207:160.0 2208:182.0 2209:141.0 2210:159.0 2211:183.0 2212:141.0 2213:159.0 2214:181.0 2215:140.0 2216:158.0 2217:182.0 2218:139.0 2219:157.0 2220:179.0 2221:139.0 2222:157.0 2223:181.0 2224:139.0 2225:157.0 2226:179.0 2227:139.0 2228:157.0 2229:181.0 2230:138.0 2231:156.0 2232:178.0 2233:138.0 2234:156.0 2235:180.0 2236:137.0 2237:155.0 2238:177.0 2239:137.0 2240:155.0 2241:179.0 2242:137.0 2243:155.0 2244:177.0 2245:137.0 2246:155.0 2247:179.0 2248:137.0 2249:155.0 2250:177.0 2251:137.0 2252:155.0 2253:179.0 2254:136.0 2255:154.0 2256:176.0 2257:136.0 2258:154.0 2259:178.0 2260:135.0 2261:153.0 2262:175.0 2263:135.0 2264:153.0 2265:177.0 2266:135.0 2267:153.0 2268:175.0 2269:132.0 2270:150.0 2271:174.0 2272:132.0 2273:150.0 2274:172.0 2275:130.0 2276:148.0 2277:172.0 2278:129.0 2279:147.0 2280:169.0 2281:128.0 2282:146.0 2283:170.0 2284:128.0 2285:146.0 2286:168.0 2287:128.0 2288:146.0 2289:170.0 2290:128.0 2291:146.0 2292:168.0 2293:126.0 2294:144.0 2295:168.0 2296:126.0 2297:144.0 2298:166.0 2299:126.0 2300:144.0 2301:168.0 2302:125.0 2303:143.0 2304:165.0 2305:125.0 2306:143.0 2307:167.0 2308:124.0 2309:142.0 2310:164.0 2311:124.0 2312:142.0 2313:166.0 2314:124.0 2315:142.0 2316:164.0 2317:123.0 2318:141.0 2319:165.0 2320:122.0 2321:140.0 2322:162.0 2323:122.0 2324:140.0 2325:164.0 2326:121.0 2327:139.0 2328:161.0 2329:120.0 2330:138.0 2331:162.0 2332:119.0 2333:137.0 2334:159.0 2335:119.0 2336:137.0 2337:161.0 2338:119.0 2339:137.0 2340:161.0 2341:117.0 2342:135.0 2343:159.0 2344:117.0 2345:135.0 2346:159.0 2347:116.0 2348:133.0 2349:159.0 2350:116.0 2351:134.0 2352:158.0 2353:115.0 2354:132.0 2355:158.0 2356:114.0 2357:132.0 2358:156.0 2359:113.0 2360:130.0 2361:156.0 2362:113.0 2363:131.0 2364:155.0 2365:113.0 2366:130.0 2367:156.0 2368:112.0 2369:130.0 2370:154.0 2371:111.0 2372:128.0 2373:154.0 2374:110.0 2375:128.0 2376:152.0 2377:109.0 2378:126.0 2379:152.0 2380:109.0 2381:127.0 2382:151.0 2383:109.0 2384:126.0 2385:152.0 2386:109.0 2387:127.0 2388:151.0 2389:108.0 2390:126.0 2391:150.0 2392:107.0 2393:125.0 2394:149.0 2395:107.0 2396:125.0 2397:149.0 2398:106.0 2399:124.0 2400:148.0 2401:136.0 2402:156.0 2403:183.0 2404:134.0 2405:154.0 2406:181.0 2407:134.0 2408:154.0 2409:181.0 2410:133.0 2411:155.0 2412:179.0 2413:135.0 2414:157.0 2415:181.0 2416:137.0 2417:159.0 2418:182.0 2419:137.0 2420:159.0 2421:182.0 2422:137.0 2423:159.0 2424:180.0 2425:139.0 2426:160.0 2427:181.0 2428:139.0 2429:160.0 2430:179.0 2431:141.0 2432:159.0 2433:179.0 2434:142.0 2435:159.0 2436:179.0 2437:143.0 2438:158.0 2439:179.0 2440:143.0 2441:158.0 2442:177.0 2443:145.0 2444:158.0 2445:177.0 2446:145.0 2447:158.0 2448:175.0 2449:147.0 2450:158.0 2451:176.0 2452:147.0 2453:159.0 2454:175.0 2455:147.0 2456:160.0 2457:177.0 2458:148.0 2459:161.0 2460:178.0 2461:146.0 2462:161.0 2463:180.0 2464:145.0 2465:162.0 2466:182.0 2467:145.0 2468:162.0 2469:182.0 2470:143.0 2471:161.0 2472:183.0 2473:144.0 2474:162.0 2475:184.0 2476:144.0 2477:162.0 2478:184.0 2479:144.0 2480:162.0 2481:184.0 2482:145.0 2483:162.0 2484:182.0 2485:145.0 2486:162.0 2487:182.0 2488:146.0 2489:161.0 2490:180.0 2491:146.0 2492:161.0 2493:180.0 2494:146.0 2495:161.0 2496:182.0 2497:144.0 2498:161.0 2499:181.0 2500:144.0 2501:161.0 2502:181.0 2503:144.0 2504:160.0 2505:183.0 2506:144.0 2507:161.0 2508:181.0 2509:144.0 2510:160.0 2511:183.0 2512:144.0 2513:161.0 2514:181.0 2515:144.0 2516:160.0 2517:183.0 2518:144.0 2519:161.0 2520:181.0 2521:141.0 2522:157.0 2523:180.0 2524:141.0 2525:158.0 2526:178.0 2527:141.0 2528:157.0 2529:180.0 2530:141.0 2531:158.0 2532:178.0 2533:140.0 2534:156.0 2535:179.0 2536:140.0 2537:157.0 2538:177.0 2539:140.0 2540:156.0 2541:179.0 2542:140.0 2543:157.0 2544:177.0 2545:138.0 2546:154.0 2547:177.0 2548:139.0 2549:156.0 2550:176.0 2551:139.0 2552:155.0 2553:178.0 2554:139.0 2555:156.0 2556:176.0 2557:138.0 2558:154.0 2559:177.0 2560:137.0 2561:154.0 2562:174.0 2563:136.0 2564:152.0 2565:175.0 2566:136.0 2567:153.0 2568:173.0 2569:135.0 2570:151.0 2571:174.0 2572:135.0 2573:152.0 2574:172.0 2575:135.0 2576:151.0 2577:174.0 2578:134.0 2579:151.0 2580:171.0 2581:134.0 2582:150.0 2583:173.0 2584:133.0 2585:150.0 2586:170.0 2587:133.0 2588:149.0 2589:172.0 2590:133.0 2591:150.0 2592:170.0 2593:131.0 2594:147.0 2595:170.0 2596:129.0 2597:146.0 2598:166.0 2599:128.0 2600:144.0 2601:167.0 2602:128.0 2603:145.0 2604:165.0 2605:129.0 2606:145.0 2607:168.0 2608:129.0 2609:146.0 2610:166.0 2611:127.0 2612:143.0 2613:166.0 2614:126.0 2615:143.0 2616:163.0 2617:129.0 2618:145.0 2619:168.0 2620:126.0 2621:143.0 2622:163.0 2623:123.0 2624:139.0 2625:162.0 2626:122.0 2627:139.0 2628:159.0 2629:122.0 2630:138.0 2631:161.0 2632:124.0 2633:141.0 2634:161.0 2635:125.0 2636:141.0 2637:164.0 2638:126.0 2639:142.0 2640:165.0 2641:122.0 2642:138.0 2643:161.0 2644:121.0 2645:137.0 2646:160.0 2647:121.0 2648:137.0 2649:162.0 2650:120.0 2651:136.0 2652:159.0 2653:119.0 2654:135.0 2655:160.0 2656:118.0 2657:134.0 2658:157.0 2659:118.0 2660:134.0 2661:159.0 2662:117.0 2663:133.0 2664:156.0 2665:117.0 2666:133.0 2667:158.0 2668:117.0 2669:133.0 2670:156.0 2671:116.0 2672:132.0 2673:157.0 2674:115.0 2675:131.0 2676:154.0 2677:114.0 2678:130.0 2679:155.0 2680:113.0 2681:129.0 2682:152.0 2683:112.0 2684:128.0 2685:153.0 2686:112.0 2687:128.0 2688:151.0 2689:113.0 2690:129.0 2691:152.0 2692:112.0 2693:128.0 2694:151.0 2695:111.0 2696:127.0 2697:150.0 2698:110.0 2699:126.0 2700:149.0 2701:138.0 2702:158.0 2703:183.0 2704:137.0 2705:157.0 2706:182.0 2707:136.0 2708:156.0 2709:181.0 2710:137.0 2711:157.0 2712:181.0 2713:139.0 2714:159.0 2715:183.0 2716:140.0 2717:161.0 2718:182.0 2719:141.0 2720:162.0 2721:183.0 2722:140.0 2723:161.0 2724:180.0 2725:141.0 2726:162.0 2727:181.0 2728:143.0 2729:162.0 2730:179.0 2731:144.0 2732:161.0 2733:179.0 2734:144.0 2735:161.0 2736:179.0 2737:145.0 2738:160.0 2739:179.0 2740:145.0 2741:160.0 2742:179.0 2743:147.0 2744:160.0 2745:179.0 2746:147.0 2747:160.0 2748:177.0 2749:149.0 2750:160.0 2751:178.0 2752:150.0 2753:162.0 2754:178.0 2755:149.0 2756:162.0 2757:179.0 2758:150.0 2759:163.0 2760:180.0 2761:148.0 2762:164.0 2763:180.0 2764:148.0 2765:163.0 2766:182.0 2767:148.0 2768:163.0 2769:182.0 2770:147.0 2771:164.0 2772:182.0 2773:147.0 2774:164.0 2775:184.0 2776:147.0 2777:164.0 2778:184.0 2779:147.0 2780:164.0 2781:182.0 2782:148.0 2783:163.0 2784:182.0 2785:148.0 2786:163.0 2787:182.0 2788:148.0 2789:164.0 2790:180.0 2791:148.0 2792:163.0 2793:182.0 2794:148.0 2795:163.0 2796:182.0 2797:146.0 2798:161.0 2799:180.0 2800:146.0 2801:161.0 2802:180.0 2803:146.0 2804:161.0 2805:180.0 2806:146.0 2807:161.0 2808:180.0 2809:146.0 2810:161.0 2811:180.0 2812:146.0 2813:161.0 2814:180.0 2815:146.0 2816:161.0 2817:180.0 2818:146.0 2819:161.0 2820:180.0 2821:145.0 2822:160.0 2823:179.0 2824:145.0 2825:160.0 2826:179.0 2827:144.0 2828:159.0 2829:178.0 2830:144.0 2831:159.0 2832:178.0 2833:144.0 2834:159.0 2835:178.0 2836:143.0 2837:158.0 2838:177.0 2839:143.0 2840:158.0 2841:177.0 2842:143.0 2843:158.0 2844:177.0 2845:141.0 2846:156.0 2847:175.0 2848:140.0 2849:157.0 2850:175.0 2851:141.0 2852:156.0 2853:175.0 2854:140.0 2855:157.0 2856:175.0 2857:140.0 2858:155.0 2859:174.0 2860:138.0 2861:155.0 2862:173.0 2863:138.0 2864:153.0 2865:172.0 2866:137.0 2867:154.0 2868:172.0 2869:138.0 2870:153.0 2871:172.0 2872:136.0 2873:153.0 2874:171.0 2875:137.0 2876:152.0 2877:171.0 2878:135.0 2879:152.0 2880:170.0 2881:136.0 2882:151.0 2883:170.0 2884:134.0 2885:151.0 2886:169.0 2887:135.0 2888:150.0 2889:169.0 2890:135.0 2891:150.0 2892:169.0 2893:135.0 2894:150.0 2895:169.0 2896:134.0 2897:149.0 2898:168.0 2899:132.0 2900:147.0 2901:166.0 2902:132.0 2903:147.0 2904:166.0 2905:133.0 2906:148.0 2907:167.0 2908:133.0 2909:148.0 2910:167.0 2911:132.0 2912:147.0 2913:166.0 2914:130.0 2915:145.0 2916:164.0 2917:131.0 2918:146.0 2919:165.0 2920:128.0 2921:143.0 2922:162.0 2923:126.0 2924:141.0 2925:160.0 2926:125.0 2927:140.0 2928:159.0 2929:125.0 2930:140.0 2931:159.0 2932:126.0 2933:141.0 2934:160.0 2935:126.0 2936:141.0 2937:160.0 2938:126.0 2939:141.0 2940:160.0 2941:123.0 2942:138.0 2943:159.0 2944:123.0 2945:138.0 2946:159.0 2947:122.0 2948:137.0 2949:158.0 2950:122.0 2951:137.0 2952:158.0 2953:121.0 2954:136.0 2955:157.0 2956:120.0 2957:135.0 2958:156.0 2959:119.0 2960:134.0 2961:155.0 2962:119.0 2963:134.0 2964:155.0 2965:120.0 2966:135.0 2967:156.0 2968:119.0 2969:134.0 2970:155.0 2971:119.0 2972:134.0 2973:155.0 2974:118.0 2975:133.0 2976:154.0 2977:117.0 2978:132.0 2979:153.0 2980:116.0 2981:131.0 2982:152.0 2983:116.0 2984:131.0 2985:152.0 2986:115.0 2987:130.0 2988:151.0 2989:115.0 2990:130.0 2991:151.0 2992:113.0 2993:130.0 2994:150.0 2995:113.0 2996:128.0 2997:151.0 2998:111.0 2999:128.0 3000:148.0 3001:143.0 3002:161.0 3003:185.0 3004:142.0 3005:160.0 3006:182.0 3007:141.0 3008:159.0 3009:181.0 3010:142.0 3011:160.0 3012:180.0 3013:144.0 3014:162.0 3015:182.0 3016:145.0 3017:164.0 3018:181.0 3019:146.0 3020:165.0 3021:182.0 3022:145.0 3023:164.0 3024:179.0 3025:146.0 3026:165.0 3027:180.0 3028:147.0 3029:164.0 3030:180.0 3031:147.0 3032:164.0 3033:180.0 3034:148.0 3035:164.0 3036:180.0 3037:150.0 3038:163.0 3039:180.0 3040:150.0 3041:163.0 3042:180.0 3043:150.0 3044:163.0 3045:182.0 3046:150.0 3047:163.0 3048:180.0 3049:152.0 3050:163.0 3051:181.0 3052:153.0 3053:165.0 3054:181.0 3055:153.0 3056:166.0 3057:182.0 3058:153.0 3059:166.0 3060:182.0 3061:153.0 3062:166.0 3063:182.0 3064:153.0 3065:166.0 3066:183.0 3067:153.0 3068:166.0 3069:183.0 3070:151.0 3071:167.0 3072:183.0 3073:151.0 3074:167.0 3075:183.0 3076:151.0 3077:167.0 3078:183.0 3079:151.0 3080:167.0 3081:183.0 3082:153.0 3083:166.0 3084:183.0 3085:153.0 3086:166.0 3087:183.0 3088:153.0 3089:166.0 3090:182.0 3091:153.0 3092:166.0 3093:183.0 3094:153.0 3095:166.0 3096:183.0 3097:150.0 3098:163.0 3099:180.0 3100:150.0 3101:163.0 3102:180.0 3103:150.0 3104:163.0 3105:180.0 3106:150.0 3107:163.0 3108:180.0 3109:150.0 3110:163.0 3111:180.0 3112:150.0 3113:163.0 3114:180.0 3115:150.0 3116:163.0 3117:180.0 3118:150.0 3119:163.0 3120:180.0 3121:151.0 3122:164.0 3123:181.0 3124:150.0 3125:163.0 3126:180.0 3127:150.0 3128:163.0 3129:180.0 3130:149.0 3131:162.0 3132:179.0 3133:149.0 3134:162.0 3135:179.0 3136:148.0 3137:161.0 3138:178.0 3139:148.0 3140:161.0 3141:178.0 3142:148.0 3143:161.0 3144:178.0 3145:145.0 3146:158.0 3147:175.0 3148:143.0 3149:159.0 3150:175.0 3151:145.0 3152:158.0 3153:175.0 3154:143.0 3155:159.0 3156:175.0 3157:144.0 3158:157.0 3159:174.0 3160:142.0 3161:158.0 3162:174.0 3163:143.0 3164:156.0 3165:173.0 3166:140.0 3167:156.0 3168:172.0 3169:142.0 3170:155.0 3171:172.0 3172:140.0 3173:156.0 3174:172.0 3175:141.0 3176:154.0 3177:171.0 3178:139.0 3179:155.0 3180:171.0 3181:140.0 3182:153.0 3183:170.0 3184:138.0 3185:154.0 3186:170.0 3187:139.0 3188:152.0 3189:169.0 3190:139.0 3191:152.0 3192:169.0 3193:138.0 3194:151.0 3195:168.0 3196:137.0 3197:150.0 3198:167.0 3199:136.0 3200:149.0 3201:166.0 3202:136.0 3203:149.0 3204:166.0 3205:136.0 3206:149.0 3207:166.0 3208:136.0 3209:149.0 3210:166.0 3211:135.0 3212:148.0 3213:165.0 3214:134.0 3215:147.0 3216:164.0 3217:136.0 3218:149.0 3219:166.0 3220:134.0 3221:147.0 3222:164.0 3223:132.0 3224:145.0 3225:162.0 3226:132.0 3227:145.0 3228:162.0 3229:132.0 3230:145.0 3231:162.0 3232:131.0 3233:144.0 3234:161.0 3235:130.0 3236:143.0 3237:160.0 3238:129.0 3239:142.0 3240:159.0 3241:129.0 3242:142.0 3243:161.0 3244:129.0 3245:142.0 3246:161.0 3247:128.0 3248:141.0 3249:160.0 3250:127.0 3251:140.0 3252:159.0 3253:126.0 3254:139.0 3255:158.0 3256:126.0 3257:139.0 3258:158.0 3259:125.0 3260:138.0 3261:157.0 3262:125.0 3263:138.0 3264:157.0 3265:124.0 3266:137.0 3267:156.0 3268:124.0 3269:137.0 3270:156.0 3271:124.0 3272:137.0 3273:156.0 3274:123.0 3275:136.0 3276:155.0 3277:122.0 3278:135.0 3279:154.0 3280:122.0 3281:135.0 3282:154.0 3283:121.0 3284:134.0 3285:153.0 3286:121.0 3287:134.0 3288:153.0 3289:119.0 3290:132.0 3291:151.0 3292:117.0 3293:132.0 3294:151.0 3295:118.0 3296:130.0 3297:152.0 3298:115.0 3299:130.0 3300:149.0 3301:146.0 3302:162.0 3303:185.0 3304:144.0 3305:162.0 3306:182.0 3307:144.0 3308:161.0 3309:181.0 3310:145.0 3311:162.0 3312:180.0 3313:147.0 3314:164.0 3315:182.0 3316:149.0 3317:166.0 3318:182.0 3319:149.0 3320:166.0 3321:182.0 3322:150.0 3323:166.0 3324:181.0 3325:151.0 3326:167.0 3327:182.0 3328:151.0 3329:167.0 3330:180.0 3331:151.0 3332:167.0 3333:180.0 3334:153.0 3335:166.0 3336:182.0 3337:153.0 3338:166.0 3339:182.0 3340:153.0 3341:166.0 3342:183.0 3343:153.0 3344:166.0 3345:185.0 3346:153.0 3347:166.0 3348:183.0 3349:155.0 3350:167.0 3351:183.0 3352:155.0 3353:167.0 3354:181.0 3355:155.0 3356:168.0 3357:184.0 3358:156.0 3359:170.0 3360:183.0 3361:156.0 3362:169.0 3363:185.0 3364:156.0 3365:170.0 3366:183.0 3367:156.0 3368:168.0 3369:182.0 3370:155.0 3371:169.0 3372:182.0 3373:157.0 3374:169.0 3375:183.0 3376:156.0 3377:170.0 3378:183.0 3379:157.0 3380:169.0 3381:183.0 3382:156.0 3383:170.0 3384:183.0 3385:157.0 3386:169.0 3387:183.0 3388:156.0 3389:170.0 3390:183.0 3391:157.0 3392:169.0 3393:183.0 3394:157.0 3395:169.0 3396:183.0 3397:155.0 3398:167.0 3399:181.0 3400:155.0 3401:167.0 3402:181.0 3403:157.0 3404:166.0 3405:181.0 3406:155.0 3407:167.0 3408:181.0 3409:157.0 3410:166.0 3411:181.0 3412:155.0 3413:167.0 3414:181.0 3415:157.0 3416:166.0 3417:181.0 3418:155.0 3419:167.0 3420:181.0 3421:157.0 3422:166.0 3423:181.0 3424:154.0 3425:166.0 3426:180.0 3427:156.0 3428:165.0 3429:180.0 3430:153.0 3431:165.0 3432:179.0 3433:155.0 3434:164.0 3435:179.0 3436:152.0 3437:164.0 3438:178.0 3439:153.0 3440:162.0 3441:177.0 3442:151.0 3443:163.0 3444:177.0 3445:149.0 3446:161.0 3447:175.0 3448:148.0 3449:162.0 3450:175.0 3451:149.0 3452:161.0 3453:175.0 3454:148.0 3455:162.0 3456:175.0 3457:148.0 3458:160.0 3459:174.0 3460:146.0 3461:160.0 3462:173.0 3463:146.0 3464:158.0 3465:172.0 3466:145.0 3467:159.0 3468:172.0 3469:146.0 3470:158.0 3471:172.0 3472:144.0 3473:158.0 3474:171.0 3475:145.0 3476:157.0 3477:171.0 3478:143.0 3479:157.0 3480:170.0 3481:144.0 3482:156.0 3483:170.0 3484:142.0 3485:156.0 3486:169.0 3487:143.0 3488:155.0 3489:169.0 3490:143.0 3491:155.0 3492:169.0 3493:143.0 3494:155.0 3495:169.0 3496:141.0 3497:153.0 3498:167.0 3499:142.0 3500:151.0 3501:166.0 3502:140.0 3503:152.0 3504:166.0 3505:143.0 3506:152.0 3507:167.0 3508:141.0 3509:153.0 3510:167.0 3511:141.0 3512:150.0 3513:165.0 3514:138.0 3515:150.0 3516:164.0 3517:143.0 3518:152.0 3519:167.0 3520:140.0 3521:152.0 3522:166.0 3523:141.0 3524:150.0 3525:165.0 3526:139.0 3527:151.0 3528:165.0 3529:141.0 3530:150.0 3531:165.0 3532:137.0 3533:149.0 3534:163.0 3535:137.0 3536:146.0 3537:161.0 3538:133.0 3539:145.0 3540:159.0 3541:137.0 3542:146.0 3543:163.0 3544:134.0 3545:146.0 3546:162.0 3547:136.0 3548:145.0 3549:162.0 3550:133.0 3551:145.0 3552:161.0 3553:134.0 3554:143.0 3555:160.0 3556:131.0 3557:143.0 3558:159.0 3559:133.0 3560:142.0 3561:159.0 3562:130.0 3563:142.0 3564:158.0 3565:129.0 3566:138.0 3567:155.0 3568:127.0 3569:139.0 3570:155.0 3571:129.0 3572:138.0 3573:155.0 3574:126.0 3575:138.0 3576:154.0 3577:128.0 3578:137.0 3579:154.0 3580:125.0 3581:137.0 3582:153.0 3583:127.0 3584:136.0 3585:153.0 3586:125.0 3587:137.0 3588:153.0 3589:123.0 3590:134.0 3591:152.0 3592:121.0 3593:134.0 3594:151.0 3595:121.0 3596:132.0 3597:150.0 3598:120.0 3599:133.0 3600:150.0 3601:149.0 3602:164.0 3603:185.0 3604:147.0 3605:164.0 3606:182.0 3607:147.0 3608:162.0 3609:181.0 3610:148.0 3611:164.0 3612:180.0 3613:150.0 3614:166.0 3615:181.0 3616:152.0 3617:168.0 3618:181.0 3619:152.0 3620:168.0 3621:181.0 3622:154.0 3623:168.0 3624:179.0 3625:155.0 3626:169.0 3627:180.0 3628:155.0 3629:169.0 3630:180.0 3631:155.0 3632:169.0 3633:180.0 3634:156.0 3635:168.0 3636:182.0 3637:156.0 3638:168.0 3639:184.0 3640:156.0 3641:168.0 3642:184.0 3643:156.0 3644:167.0 3645:185.0 3646:156.0 3647:167.0 3648:185.0 3649:157.0 3650:169.0 3651:183.0 3652:157.0 3653:169.0 3654:181.0 3655:158.0 3656:170.0 3657:184.0 3658:158.0 3659:170.0 3660:182.0 3661:159.0 3662:171.0 3663:185.0 3664:159.0 3665:171.0 3666:183.0 3667:160.0 3668:170.0 3669:182.0 3670:158.0 3671:170.0 3672:182.0 3673:162.0 3674:172.0 3675:184.0 3676:160.0 3677:172.0 3678:184.0 3679:162.0 3680:172.0 3681:184.0 3682:160.0 3683:172.0 3684:184.0 3685:162.0 3686:172.0 3687:184.0 3688:160.0 3689:172.0 3690:184.0 3691:162.0 3692:172.0 3693:184.0 3694:162.0 3695:172.0 3696:184.0 3697:160.0 3698:170.0 3699:182.0 3700:160.0 3701:170.0 3702:182.0 3703:161.0 3704:169.0 3705:182.0 3706:160.0 3707:170.0 3708:182.0 3709:161.0 3710:169.0 3711:182.0 3712:160.0 3713:170.0 3714:182.0 3715:161.0 3716:169.0 3717:182.0 3718:160.0 3719:170.0 3720:182.0 3721:160.0 3722:168.0 3723:181.0 3724:159.0 3725:169.0 3726:181.0 3727:159.0 3728:167.0 3729:180.0 3730:158.0 3731:168.0 3732:180.0 3733:158.0 3734:166.0 3735:179.0 3736:156.0 3737:166.0 3738:178.0 3739:156.0 3740:164.0 3741:177.0 3742:155.0 3743:165.0 3744:177.0 3745:154.0 3746:164.0 3747:176.0 3748:152.0 3749:164.0 3750:176.0 3751:154.0 3752:164.0 3753:176.0 3754:152.0 3755:164.0 3756:176.0 3757:153.0 3758:163.0 3759:175.0 3760:151.0 3761:163.0 3762:175.0 3763:152.0 3764:162.0 3765:174.0 3766:149.0 3767:161.0 3768:173.0 3769:151.0 3770:161.0 3771:173.0 3772:148.0 3773:160.0 3774:172.0 3775:150.0 3776:160.0 3777:172.0 3778:148.0 3779:160.0 3780:172.0 3781:149.0 3782:159.0 3783:171.0 3784:147.0 3785:159.0 3786:171.0 3787:148.0 3788:158.0 3789:170.0 3790:148.0 3791:158.0 3792:170.0 3793:150.0 3794:160.0 3795:172.0 3796:148.0 3797:158.0 3798:170.0 3799:148.0 3800:156.0 3801:169.0 3802:147.0 3803:157.0 3804:169.0 3805:149.0 3806:157.0 3807:170.0 3808:148.0 3809:158.0 3810:170.0 3811:147.0 3812:155.0 3813:168.0 3814:145.0 3815:155.0 3816:167.0 3817:146.0 3818:154.0 3819:167.0 3820:144.0 3821:154.0 3822:166.0 3823:145.0 3824:153.0 3825:166.0 3826:144.0 3827:154.0 3828:166.0 3829:145.0 3830:153.0 3831:166.0 3832:142.0 3833:152.0 3834:164.0 3835:140.0 3836:148.0 3837:161.0 3838:137.0 3839:147.0 3840:159.0 3841:140.0 3842:147.0 3843:163.0 3844:139.0 3845:148.0 3846:163.0 3847:139.0 3848:146.0 3849:162.0 3850:138.0 3851:147.0 3852:162.0 3853:138.0 3854:145.0 3855:161.0 3856:136.0 3857:145.0 3858:160.0 3859:136.0 3860:143.0 3861:159.0 3862:135.0 3863:144.0 3864:159.0 3865:133.0 3866:140.0 3867:156.0 3868:132.0 3869:141.0 3870:156.0 3871:132.0 3872:139.0 3873:155.0 3874:130.0 3875:139.0 3876:154.0 3877:131.0 3878:138.0 3879:154.0 3880:129.0 3881:138.0 3882:153.0 3883:129.0 3884:136.0 3885:152.0 3886:128.0 3887:137.0 3888:152.0 3889:128.0 3890:137.0 3891:154.0 3892:126.0 3893:138.0 3894:154.0 3895:127.0 3896:136.0 3897:153.0 3898:124.0 3899:136.0 3900:152.0 3901:152.0 3902:167.0 3903:186.0 3904:150.0 3905:166.0 3906:182.0 3907:150.0 3908:166.0 3909:182.0 3910:152.0 3911:165.0 3912:181.0 3913:154.0 3914:168.0 3915:181.0 3916:156.0 3917:170.0 3918:181.0 3919:156.0 3920:170.0 3921:181.0 3922:157.0 3923:170.0 3924:179.0 3925:158.0 3926:171.0 3927:180.0 3928:158.0 3929:171.0 3930:180.0 3931:158.0 3932:171.0 3933:180.0 3934:158.0 3935:170.0 3936:182.0 3937:158.0 3938:170.0 3939:184.0 3940:158.0 3941:170.0 3942:186.0 3943:158.0 3944:170.0 3945:186.0 3946:158.0 3947:170.0 3948:186.0 3949:159.0 3950:171.0 3951:185.0 3952:160.0 3953:172.0 3954:184.0 3955:160.0 3956:172.0 3957:184.0 3958:161.0 3959:173.0 3960:185.0 3961:163.0 3962:173.0 3963:185.0 3964:163.0 3965:173.0 3966:183.0 3967:163.0 3968:173.0 3969:183.0 3970:162.0 3971:172.0 3972:182.0 3973:165.0 3974:175.0 3975:185.0 3976:165.0 3977:175.0 3978:184.0 3979:166.0 3980:174.0 3981:185.0 3982:165.0 3983:175.0 3984:185.0 3985:165.0 3986:175.0 3987:185.0 3988:165.0 3989:175.0 3990:185.0 3991:165.0 3992:175.0 3993:185.0 3994:166.0 3995:174.0 3996:185.0 3997:164.0 3998:172.0 3999:183.0 4000:164.0 4001:172.0 4002:183.0 4003:165.0 4004:171.0 4005:183.0 4006:164.0 4007:172.0 4008:183.0 4009:165.0 4010:171.0 4011:183.0 4012:164.0 4013:172.0 4014:183.0 4015:165.0 4016:171.0 4017:183.0 4018:164.0 4019:172.0 4020:183.0 4021:165.0 4022:171.0 4023:183.0 4024:163.0 4025:171.0 4026:182.0 4027:163.0 4028:169.0 4029:181.0 4030:161.0 4031:169.0 4032:180.0 4033:161.0 4034:167.0 4035:179.0 4036:159.0 4037:167.0 4038:178.0 4039:160.0 4040:166.0 4041:178.0 4042:158.0 4043:166.0 4044:177.0 4045:158.0 4046:166.0 4047:177.0 4048:157.0 4049:167.0 4050:177.0 4051:157.0 4052:167.0 4053:177.0 4054:157.0 4055:167.0 4056:177.0 4057:156.0 4058:166.0 4059:176.0 4060:155.0 4061:165.0 4062:175.0 4063:154.0 4064:164.0 4065:174.0 4066:154.0 4067:164.0 4068:174.0 4069:154.0 4070:164.0 4071:174.0 4072:153.0 4073:163.0 4074:173.0 4075:153.0 4076:163.0 4077:173.0 4078:152.0 4079:162.0 4080:172.0 4081:152.0 4082:162.0 4083:172.0 4084:151.0 4085:161.0 4086:171.0 4087:151.0 4088:161.0 4089:171.0 4090:152.0 4091:160.0 4092:171.0 4093:151.0 4094:159.0 4095:170.0 4096:149.0 4097:157.0 4098:168.0 4099:149.0 4100:155.0 4101:167.0 4102:148.0 4103:156.0 4104:167.0 4105:150.0 4106:156.0 4107:168.0 4108:149.0 4109:157.0 4110:168.0 4111:148.0 4112:154.0 4113:166.0 4114:146.0 4115:154.0 4116:165.0 4117:148.0 4118:154.0 4119:166.0 4120:146.0 4121:154.0 4122:165.0 4123:147.0 4124:153.0 4125:165.0 4126:146.0 4127:154.0 4128:165.0 4129:147.0 4130:153.0 4131:165.0 4132:145.0 4133:153.0 4134:164.0 4135:143.0 4136:149.0 4137:161.0 4138:140.0 4139:148.0 4140:159.0 4141:143.0 4142:149.0 4143:163.0 4144:141.0 4145:149.0 4146:162.0 4147:142.0 4148:148.0 4149:162.0 4150:140.0 4151:148.0 4152:161.0 4153:140.0 4154:146.0 4155:160.0 4156:138.0 4157:146.0 4158:159.0 4159:139.0 4160:145.0 4161:159.0 4162:137.0 4163:145.0 4164:158.0 4165:137.0 4166:143.0 4167:157.0 4168:136.0 4169:144.0 4170:157.0 4171:136.0 4172:142.0 4173:156.0 4174:134.0 4175:142.0 4176:155.0 4177:134.0 4178:140.0 4179:154.0 4180:132.0 4181:140.0 4182:153.0 4183:132.0 4184:138.0 4185:152.0 4186:130.0 4187:138.0 4188:151.0 4189:132.0 4190:139.0 4191:155.0 4192:130.0 4193:139.0 4194:154.0 4195:129.0 4196:138.0 4197:153.0 4198:129.0 4199:138.0 4200:153.0 4201:157.0 4202:170.0 4203:187.0 4204:155.0 4205:168.0 4206:185.0 4207:155.0 4208:168.0 4209:184.0 4210:156.0 4211:168.0 4212:182.0 4213:159.0 4214:171.0 4215:183.0 4216:160.0 4217:173.0 4218:182.0 4219:160.0 4220:173.0 4221:182.0 4222:162.0 4223:172.0 4224:181.0 4225:163.0 4226:173.0 4227:182.0 4228:163.0 4229:173.0 4230:182.0 4231:163.0 4232:173.0 4233:183.0 4234:163.0 4235:173.0 4236:185.0 4237:161.0 4238:173.0 4239:185.0 4240:161.0 4241:173.0 4242:187.0 4243:161.0 4244:173.0 4245:189.0 4246:161.0 4247:173.0 4248:187.0 4249:164.0 4250:174.0 4251:186.0 4252:165.0 4253:175.0 4254:185.0 4255:165.0 4256:175.0 4257:185.0 4258:166.0 4259:176.0 4260:186.0 4261:167.0 4262:175.0 4263:186.0 4264:167.0 4265:176.0 4266:185.0 4267:167.0 4268:176.0 4269:185.0 4270:166.0 4271:175.0 4272:184.0 4273:167.0 4274:176.0 4275:185.0 4276:167.0 4277:176.0 4278:183.0 4279:168.0 4280:175.0 4281:185.0 4282:167.0 4283:176.0 4284:185.0 4285:167.0 4286:176.0 4287:185.0 4288:167.0 4289:176.0 4290:185.0 4291:167.0 4292:176.0 4293:185.0 4294:167.0 4295:176.0 4296:185.0 4297:168.0 4298:175.0 4299:185.0 4300:168.0 4301:175.0 4302:185.0 4303:170.0 4304:174.0 4305:185.0 4306:168.0 4307:175.0 4308:185.0 4309:170.0 4310:174.0 4311:185.0 4312:168.0 4313:175.0 4314:185.0 4315:170.0 4316:174.0 4317:185.0 4318:168.0 4319:175.0 4320:185.0 4321:170.0 4322:174.0 4323:185.0 4324:168.0 4325:175.0 4326:185.0 4327:169.0 4328:173.0 4329:184.0 4330:166.0 4331:173.0 4332:183.0 4333:167.0 4334:171.0 4335:182.0 4336:163.0 4337:170.0 4338:180.0 4339:165.0 4340:169.0 4341:180.0 4342:162.0 4343:169.0 4344:179.0 4345:160.0 4346:169.0 4347:178.0 4348:160.0 